tree
version=v4
num_class=1
num_tree_per_iteration=1
label_index=0
max_feature_idx=15
objective=binary sigmoid:1
feature_names=Department Gender Age Job_Title Years_At_Company Education_Level Performance_Score Monthly_Salary Work_Hours_Per_Week Projects_Handled Overtime_Hours Sick_Days Remote_Work_Frequency Team_Size Training_Hours Promotions
feature_infos=[0:6] [0:1] [-1.6843585184844236:2.3930387827540671] [0:34] [-0.90101566924308107:2.7765993072592905] [0:3] [-1.5229296703228661:2.4577185640213708] [-1.2194105870093173:4.294920786363341] [-1.6937350781745455:1.9719173694798762] [-1.0924801063550669:2.3499923418784485] [-1.1838121218568016:1.9999541337165312] [-1.0858766326693996:2.0419485214431297] [-1.5154804205365804:1.4800335057422804] [-1.8832798972179103:1.9894205768783255] [-1.7560277279891363:2.3538185717779205] [-1.5650556673794747:1.2172655190729247]
tree_sizes=4316 4361 4369 4365 4367 4364 4354 4362 4365 4362 4382 4349 4374 4371 4363 4353 4363 4370 4356 4364 4387 4372 4365 4386 4370 4384 4393 4384 4368 4393 4385 4387 4382 4368 4391 4401 4363 4372 4384 4397 4379 4381 4371 4400 4366 4373 4377 4368 4383 4387 4365 4380 4382 4389 4391 4365 4371 4363 4399 4390 4381 4370 4371 4390 4410 4383 4393 4392 4382 4380 4386 4390 4189 4378 4390 4377 4409 4378 4383 4379 4377 4373 4392 4164 4372 4387 4380 4405 4369 3641 4379 4374 4384 4372 4070 4390 4396 4377 4372 4376 3210 2891 4370 4382 4395 4374 2790 4391 2986 4381 4376 4388 4383 4394 4363 4402 4378 4275 4397 4388 3540 1838 4378 4068 4393 4396 4288 4386 4385 4367 4387 4380 4394 4382 4081 4387 3016 4391 4375 4368 4195 4393 4386 3898 4397 4393 3230 4412 4389 4385 4384 4397 4377 3973 4393 4387 3121 4371 4399 4397 1853 4390 4410 4392 2478 4391 1954 4405 1965 4388 4417 4417 4378 4377 4391 4385 4394 4379 2282 3555 4388 4381 2388 4386 4403 2689 4393 4400 4384 4387 4367 2290 2704 4397 4395 4397 4373 4392 4171 3564 2901 3140 4389 4385 4402 4408 4388 4403 4398 4386 4390 2587 4393 4396 4408 4413 4379 4370 4399 4387 4402 4400 4368 4395 4407 4372 4380 4390 4381 4383 4385 4400 3882 4381 4404 4388 3882 4369 4407 3864 4373 4386 4387 4404 2701 4393 4421 4392 4409 3346

Tree=0
num_leaves=40
num_cat=0
split_feature=10 15 7 10 12 7 14 14 14 13 14 7 1 14 14 7 15 1 3 10 11 11 9 11 10 9 12 14 14 12 9 11 13 4 9 10 15 9 9
split_gain=197.842 53.6474 53.612 27.3285 24.7999 20.1374 19.7191 19.6402 11.8366 11.9955 12.2488 9.91102 10.358 9.87594 9.52847 9.0286 8.9259 8.07936 10.8709 7.96797 10.1017 7.36156 7.14763 7.14585 7.07172 8.06917 7.05054 8.31379 8.76387 7.89621 6.66365 6.44258 6.41582 6.22217 6.14249 6.03693 5.77936 6.3184 5.32989
threshold=0.29828596263423274 -0.86947537076637471 0.14903561777985372 1.1765663089992902 -1.1410411797517226 0.25040200331979229 -0.87241077353921892 1.3880046913326625 -1.0779030885275718 0.80609543201558698 0.36054311639089803 1.4667986297990554 1.0000000180025095e-35 1.22361083934198 0.64823235737459206 -0.033423876192035767 1.0000000180025095e-35 1.0000000180025095e-35 23.500000000000004 -0.57999438373082457 -0.30392034414126728 -0.52733642657787649 -0.78265758601405044 -1.0000000180025095e-35 0.95699622240802584 -0.36956089222602856 1.1055942649574231 0.85372467236294491 -1.4888877185042773 -0.39216269818200755 -0.094163096367347404 0.36632790316856034 1.0000000180025095e-35 0.52916793273006357 0.043535801561993201 1.9450616120687154 -0.86947537076637471 -0.23186199429668802 1.4893742298200701
decision_type=2 2 2 2 2 2 2 2 2 2 2 2 2 2 2 2 2 2 2 2 2 2 2 2 2 2 2 2 2 2 2 2 2 2 2 2 2 2 2
left_child=1 26 3 13 5 8 32 15 -3 10 -10 12 -4 17 36 19 23 24 22 -8 -21 -7 -19 -14 25 -2 27 28 -1 -30 -28 -12 -6 -9 -24 -13 -5 -38 -31
right_child=2 4 11 14 6 21 7 33 9 -11 31 35 16 -15 -16 -17 -18 18 -20 20 -22 -23 34 -25 -26 -27 30 -29 29 38 -32 -33 -34 -35 -36 -37 37 -39 -40
leaf_value=-0.44990319366658466 -0.51076346105798409 -0.44888839876190612 -0.51515686602556809 -0.43117561497115264 -0.50016224657724506 -0.56640164872368615 -0.5437733229722318 -0.4944467206001823 -0.53610590678563308 -0.46361472482049765 -0.50615574365295701 -0.53613506955401935 -0.48136183571162083 -0.4427996293338346 -0.42350784409331327 -0.55182064825119914 -0.5062581373730688 -0.4342753521345345 -0.52093883699408561 -0.54101412749968369 -0.50654956565338671 -0.51660739532777455 -0.51383527266133555 -0.42859250066833443 -0.43634184357678907 -0.46106593761804909 -0.49811674732929273 -0.4679849937863122 -0.48542101533033516 -0.523306691771669 -0.54793238145853596 -0.44888839876190612 -0.52535993647390911 -0.53766658526152933 -0.46411032233208482 -0.49150978475840662 -0.47699041150685151 -0.44577321440335788 -0.476896738131035
leaf_weight=5.6309759616851798 8.6810879409313255 8.21183994412422 20.177663862705231 12.904319912195204 31.204991787672043 9.3849599361419695 74.375807493925095 19.943039864301685 17.362175881862644 10.088831931352614 8.6810879409313184 18.53529587388039 9.8542079329490679 10.323455929756163 22.289279848337173 89.157119393348694 10.558079928159716 4.692479968070983 16.892927885055542 26.981759816408157 27.451007813215256 9.6195839345455152 8.4464639425277728 7.0387199521064749 7.7425919473171225 13.138943910598753 11.027327924966814 20.646911859512329 24.400895833969116 25.339391827583317 7.0387199521064749 4.9271039664745322 33.551231771707535 7.2733439505100241 7.5079679489135733 6.5694719552993766 21.350783854722977 20.177663862705231 4.692479968070983
leaf_count=24 37 35 86 55 133 40 317 85 74 43 37 79 42 44 95 380 45 20 72 115 117 41 36 30 33 56 47 88 104 108 30 21 143 31 32 28 91 86 20
internal_value=-0.506561 -0.521187 -0.475812 -0.462456 -0.528042 -0.506219 -0.53285 -0.538035 -0.492728 -0.501495 -0.513835 -0.504119 -0.493399 -0.479222 -0.445537 -0.542035 -0.477407 -0.484825 -0.497142 -0.535262 -0.523633 -0.541197 -0.477672 -0.459375 -0.469184 -0.480838 -0.494937 -0.489881 -0.497408 -0.502323 -0.517525 -0.485421 -0.513218 -0.505997 -0.490435 -0.524457 -0.454557 -0.461823 -0.516055
internal_weight=703.872 476.991 226.881 154.148 378.214 68.2756 309.938 245.182 49.271 41.0592 30.9704 72.7334 47.6287 77.4259 76.722 217.966 27.451 67.1025 37.5398 128.809 54.4328 19.0045 20.6469 16.8929 29.5626 21.82 98.7767 80.7107 60.0637 54.4328 18.066 13.6082 64.7562 27.2164 15.9544 25.1048 54.4328 41.5284 30.0319
internal_count=3000 2033 967 657 1612 291 1321 1045 210 175 132 310 203 330 327 929 117 286 160 549 232 81 88 72 126 93 421 344 256 232 77 58 276 116 68 107 232 177 128
is_linear=0
shrinkage=1


Tree=1
num_leaves=40
num_cat=0
split_feature=10 6 8 6 15 15 8 8 10 8 10 14 14 6 4 14 5 13 14 14 12 11 10 8 9 0 12 15 14 14 12 10 8 10 4 14 14 14 13
split_gain=181.637 93.3452 57.0549 38.764 20.8012 20.3235 16.2327 14.4187 12.8168 14.6043 12.5568 11.2047 11.1027 10.3113 10.2075 10.1974 12.1386 11.4198 10.1014 10.4409 9.2964 13.4412 9.27854 12.36 13.8974 10.2546 9.15992 12.9196 9.6946 9.11985 9.31021 9.10849 15.0521 8.77917 7.75941 7.27849 7.0806 8.44912 9.60928
threshold=0.29828596263423274 1.0000000180025095e-35 0.81112742772264268 1.0000000180025095e-35 -0.86947537076637471 1.0000000180025095e-35 0.2001853531135723 -0.41075672149549797 0.95699622240802584 0.6889390128008287 1.0000000180025095e-35 1.22361083934198 -0.87241077353921892 -1.0253486410298362 -0.69670372610406028 1.22361083934198 1.5000000000000002 -0.26965469967781203 0.73042928336993318 -0.66691845855086618 -1.1410411797517226 -0.52733642657787649 1.1765663089992902 0.32237376803538637 1.0000000180025095e-35 2.5000000000000004 -1.1410411797517226 -0.86947537076637471 -1.1190015515252421 0.56603543137925094 -0.39216269818200755 1.1765663089992902 0.6889390128008287 0.62764109252112932 -0.28807983982601909 0.19614926440021571 0.85372467236294491 -1.036804625529901 -0.48480472601649183
decision_type=2 2 2 2 2 2 2 2 2 2 2 2 2 2 2 2 2 2 2 2 2 2 2 2 2 2 2 2 2 2 2 2 2 2 2 2 2 2 2
left_child=1 2 4 8 7 11 20 -1 9 15 36 22 13 -6 -10 16 17 -2 19 -9 21 -3 25 24 -24 33 -4 35 -29 -14 -31 -7 -33 -5 -18 -28 37 38 -8
right_child=3 6 26 5 12 31 10 18 14 -11 -12 -13 29 -15 -16 -17 34 -19 -20 -21 -22 -23 23 -25 -26 -27 27 28 -30 30 -32 32 -34 -35 -36 -37 -38 -39 -40
leaf_value=-0.011268273437684351 -0.0063033331065462774 -0.050740916409088455 0.073681663253176516 0.013253815365629197 0.063477948483002922 -0.026628064843303666 0.025577744116351955 0.05214506101062396 0.077361193274416221 0.067056859322265544 0.012232239620429283 0.071640631568091542 -0.03027182046049498 -0.0052601586133507175 0.045230629985591742 0.06975454288056096 0.0057667330443444843 0.058129277787290365 0.061300266469472862 -0.0063536380953674544 -0.045432676032185898 0.0051475210328037323 -0.012386148935073213 0.075945949094519724 0.064040615926683669 0.025657680166488641 0.089361512712656882 0.06617649153852663 0.0044320193501057618 0.021595803221476879 -0.020317776582346996 -0.008039205533902135 0.067383435341259554 -0.057610500626785195 -0.057006868702993388 0.036675605189786589 0.00091050740529991555 -0.03892376641118174 -0.031787737284749144
leaf_weight=22.585716933012009 8.2445095926523226 12.371049955487253 10.128402546048163 5.1650608628988284 4.6977220028638849 22.317611619830132 8.0005920380353945 7.5403549671173087 22.374243184924126 11.546619743108748 16.833882659673691 7.8607605993747702 66.539635092020035 13.601074725389481 54.002739995718002 4.7413597553968421 6.8296908736228943 9.4410804212093371 11.101965829730032 13.844813629984857 112.43366850912571 15.526459842920302 9.9198330491781288 8.7784636169671995 6.1774978190660468 14.618032485246657 7.2874628752470008 4.9185909032821646 23.546201065182693 13.102973952889441 24.030935049057007 19.091707497835163 5.4399595707654944 6.1014302521944046 5.8486582040786725 9.8877927362918836 13.576116442680357 52.366484791040421 11.230012789368628
leaf_count=96 35 53 43 22 20 95 34 32 94 49 72 33 286 58 228 20 29 40 47 59 482 66 42 37 26 62 31 21 101 56 103 81 23 26 25 42 58 225 48
internal_value=-7.4763e-06 -0.0141007 0.00398759 0.0292985 -0.00712601 0.0115047 -0.031478 0.0132784 0.0445529 0.0280335 -0.0193356 0.0272018 -0.016339 0.0123865 0.0546431 0.0151982 0.00667919 0.0280927 0.0303437 0.0142729 -0.0403044 -0.019636 0.0203199 0.0377649 0.0169433 0.00355483 0.0392693 0.0316326 0.0151012 -0.0214091 -0.00552826 -0.0081366 0.00868596 -0.0251231 -0.0231914 0.0590302 -0.0255747 -0.0305968 -0.00792173
internal_weight=703.651 475.152 232.814 228.499 177.045 105.47 242.338 55.0729 123.029 46.6519 102.007 58.6211 121.972 18.2988 76.377 35.1053 30.3639 17.6856 32.4871 21.3852 140.331 27.8975 50.7603 24.8758 16.0973 25.8845 55.7685 45.64 28.4648 103.674 37.1339 46.8493 24.5317 11.2665 12.6783 17.1753 85.1732 71.5971 19.2306
internal_count=3000 2033 995 967 757 447 1038 234 520 198 437 248 523 78 322 149 129 75 138 91 601 119 215 105 68 110 238 195 122 445 159 199 104 48 54 73 365 307 82
is_linear=0
shrinkage=0.04


Tree=2
num_leaves=40
num_cat=0
split_feature=10 8 7 7 15 10 14 12 14 4 15 14 8 14 8 14 7 2 4 10 8 14 10 1 3 15 15 14 12 3 7 5 5 14 9 12 14 14 9
split_gain=166.917 59.253 46.3759 30.6972 27.7606 22.4483 15.0228 12.8942 12.2493 11.7295 11.673 11.5227 11.1683 13.1325 10.6755 9.78476 8.7657 9.89059 10.1487 8.33701 8.25675 7.93182 7.27033 7.26068 9.73082 7.10413 7.00928 6.74928 8.75098 6.6429 6.66966 6.55441 6.36455 8.25012 6.27048 6.19919 5.92532 6.56081 8.97609
threshold=0.29828596263423274 0.81112742772264268 0.14903561777985372 0.51395460572363272 -0.86947537076637471 1.1765663089992902 -0.87241077353921892 -1.1410411797517226 0.8126262093652743 0.93779181900810482 -0.86947537076637471 1.141413913346639 0.81112742772264268 0.77152774636760368 -0.28856830657368387 0.15505080140254515 1.4667986297990554 -0.12850954827499947 0.52916793273006357 0.84721117911239363 1.7886347470971551 1.22361083934198 1.0000000180025095e-35 1.0000000180025095e-35 23.500000000000004 1.0000000180025095e-35 -0.86947537076637471 -1.4888877185042773 -0.39216269818200755 7.5000000000000009 -0.56052908099971621 1.0000000180025095e-35 1.0000000180025095e-35 0.072853875407204019 -0.78265758601405044 -0.39216269818200755 -0.87241077353921892 0.85372467236294491 -0.094163096367347404
decision_type=2 2 2 2 2 2 2 2 2 2 2 2 2 2 2 2 2 2 2 2 2 2 2 2 2 2 2 2 2 2 2 2 2 2 2 2 2 2 2
left_child=1 4 5 10 8 21 -5 9 27 22 -3 15 13 26 -10 20 17 19 -19 -4 31 23 32 -2 34 36 -7 -1 -29 -28 -31 -12 -6 -34 -25 -17 -9 -38 -39
right_child=2 3 16 6 7 12 -8 25 14 -11 11 -13 -14 -15 -16 35 -18 18 -20 -21 -22 -23 -24 24 -26 -27 29 28 -30 30 -32 -33 33 -35 -36 -37 37 38 -40
leaf_value=0.036059809958042581 0.03472265532606042 0.049770871718415641 -0.046464493854178286 0.023356293932905867 -0.024282824828990801 0.064326702150787035 -0.0441786900152525 -0.0078426091822284324 -0.0060983362677017525 -0.057093135144363448 0.031435665252506746 0.060115170312984648 0.084133829598692714 0.077174622016506572 0.052213267957340354 0.011278536462875039 -0.017572595140849488 0.00052656902424988146 0.047721455537776646 0.0091077524447107164 0.062313436786167617 0.057216024964071854 0.043366273013240468 0.066731001375313112 -0.014249174071621504 -0.039160686367726912 0.063571054947610117 0.0076879745112975245 -0.026776662273740381 0.03370195000810796 -0.0070753996815024166 -0.0062993998132119741 -0.014494715620004395 0.036498446279249599 0.014624432082760557 -0.035798482083282762 -0.034634935553865084 0.0076545786528175045 -0.037670854785439987
leaf_weight=4.7382287681102744 29.928316965699196 21.154463082551956 6.799380615353587 7.2906180918216732 18.221144497394562 10.620354652404783 19.015160948038101 25.866422742605209 8.9316607266664523 6.9359728395938864 14.26546870172024 8.014952749013899 16.889565870165825 17.139198750257492 11.480070739984511 7.9629353731870678 25.02799217402935 13.458476856350901 15.906631499528883 11.841862246394156 6.3267372697591773 10.603388428688048 5.1840952932834616 4.7978180944919613 16.871160373091698 98.397272542119026 6.463262900710105 18.839202210307121 31.492768481373787 17.210580870509148 10.234045520424845 15.225128605961798 11.413045704364778 9.1432081460952741 16.078557550907135 10.21876001358032 84.75386942923069 15.798036113381388 12.539603665471075
leaf_count=20 126 89 29 31 78 44 82 111 38 30 61 34 70 71 48 34 107 57 67 50 27 44 22 20 72 426 27 80 135 72 43 65 49 39 68 44 368 68 54
internal_value=-1.55538e-05 -0.0135994 0.027948 0.0122009 -0.0213646 0.0402084 -0.0254614 -0.0270194 0.000230088 -0.00875011 0.0241133 0.0153609 0.0553148 0.0474218 0.0266976 0.00871812 0.00161966 0.0116255 0.0260913 -0.0111622 0.0208496 0.0250485 -0.00112284 0.0200085 0.00834234 -0.030937 0.0359697 -0.00958007 -0.0138766 0.027088 0.0184962 0.0119542 -0.00707053 0.00818651 0.0265996 -0.0151804 -0.0251138 -0.029064 -0.0124022
internal_weight=703.079 473.209 229.871 109.474 363.735 156.836 26.3058 288.253 75.4819 50.8975 83.1684 62.014 78.557 61.6674 20.4117 53.999 73.0343 48.0064 29.3651 18.6412 35.8173 78.2792 43.9615 67.6759 37.7475 237.355 44.5282 55.0702 50.332 33.9079 27.4446 29.4906 38.7774 20.5563 20.8764 18.1817 138.958 113.092 28.3376
internal_count=3000 2033 967 467 1566 657 113 1245 321 218 354 265 327 257 86 231 310 203 124 79 153 330 188 286 160 1027 186 235 215 142 115 126 166 88 88 78 601 490 122
is_linear=0
shrinkage=0.04


Tree=3
num_leaves=40
num_cat=0
split_feature=10 6 8 7 6 15 8 8 8 7 10 10 15 7 4 10 6 0 3 12 8 1 7 10 13 8 3 10 12 0 3 15 11 9 11 10 12 7 4
split_gain=153.531 85.3981 48.2723 42.1822 24.481 17.7569 14.8572 13.1983 12.6325 12.435 14.1732 11.1413 10.6762 9.59476 8.89741 8.5121 8.37802 11.3973 7.20324 6.94355 6.77732 6.61607 10.7533 7.08559 6.08771 6.07537 5.8944 5.72473 5.69828 5.59643 6.64439 5.48644 7.62747 6.77342 5.43918 5.36774 6.47511 6.13406 5.29859
threshold=0.29828596263423274 1.0000000180025095e-35 0.81112742772264268 0.14903561777985372 1.0000000180025095e-35 -0.86947537076637471 0.2001853531135723 0.2001853531135723 -0.41075672149549797 1.4059787984750922 1.0000000180025095e-35 1.1765663089992902 1.0000000180025095e-35 -0.13479026173197434 -0.69670372610406028 1.1765663089992902 0.96497547614228207 5.5000000000000009 1.5000000000000002 -1.1410411797517226 0.44456218295720046 1.0000000180025095e-35 1.5681650153389941 0.84721117911239363 1.4515455110316264 1.177692672488085 1.0000000180025095e-35 1.1765663089992902 1.1055942649574231 1.0000000180025095e-35 3.5000000000000004 -0.86947537076637471 -1.0000000180025095e-35 -0.23186199429668802 0.36632790316856034 -0.47020934043519247 1.1055942649574231 1.791171063526859 -0.28807983982601909
decision_type=2 2 2 2 2 2 2 2 2 2 2 2 2 2 2 2 2 2 2 2 2 2 2 2 2 2 2 2 2 2 2 2 2 2 2 2 2 2 2
left_child=1 2 5 4 15 8 14 12 -1 10 25 -9 34 19 29 20 17 21 -7 -4 -2 -5 23 -23 35 -8 -16 -18 -10 -3 -31 -21 33 -33 -6 37 -37 -20 -27
right_child=3 6 13 16 7 18 9 11 28 -11 -12 -13 -14 -15 26 -17 27 -19 24 31 -22 22 -24 -25 -26 38 -28 -29 -30 30 -32 32 -34 -35 -36 36 -38 -39 -40
leaf_value=-0.010504350453507188 0.029646901136490759 0.015202673641750319 0.085354148021569959 -0.015826126279405918 0.032284358837242615 -0.042188216074921681 -0.026525553652759392 0.011548210775854278 0.035656091578595062 -0.050026345660163028 0.025747820764096492 0.06071826925773844 -0.024282657659796657 0.010112272054158806 -0.0016732850515541896 0.0639056983837413 -0.042362146522073728 0.050585070318330837 -0.017475314163135157 0.058051939944205898 0.063387039258910663 -0.00389337857260593 -0.033346821962027082 0.050209379065777181 0.021040114187608632 -0.017428871157613261 -0.048136694239460862 -0.0013406719185130639 -0.010126876935201905 0.0041207677726148835 -0.036749406544552665 0.016251984822887582 -0.00028934825433546234 0.081670472713844242 -0.012304948212099801 0.0047796863103721759 -0.041367916087925866 -0.061844027459430129 0.024245220924667899
leaf_weight=22.467438921332359 32.497596338391304 5.1021590679883948 6.2768501639366141 19.00412791967392 16.543557733297352 13.622184932231901 50.946869358420372 13.019855469465258 27.59451924264431 16.498008593916893 13.35685685276985 17.000770568847656 13.721032395958899 16.021813109517097 4.6021451950073233 45.762746661901474 9.5308851748704928 9.2811029851436597 55.183139964938164 14.690492227673529 13.475135281682013 5.8980561196804109 5.3415506929159156 11.280982315540312 8.5650938302278501 12.120638474822046 86.067808613181114 12.691308841109274 5.163594350218772 7.8164723217487326 34.261264190077782 4.9450556337833378 9.3867242187261599 5.1903502047061929 5.9519360065460196 31.907620847225189 5.739999219775199 5.4807217568159095 8.1730177700519544
leaf_count=96 136 22 26 81 69 59 221 55 116 72 57 70 58 68 20 188 41 39 240 61 56 25 23 47 37 52 376 54 22 34 149 21 40 22 25 138 25 24 35
internal_value=-2.16936e-05 -0.0131179 0.00415538 0.0266912 0.0383129 -0.00618643 -0.0299062 0.0197818 0.0125959 -0.0182591 -0.0120639 0.0393934 0.00352537 0.0363137 -0.0384478 0.0516932 0.00155124 0.0105115 -0.0147945 0.0466817 0.0395365 0.00155479 0.0162218 0.0316344 -0.011303 -0.0191532 -0.0457783 -0.0189344 0.0284394 -0.0243601 -0.0291573 0.0395866 0.0256913 0.0497528 0.0204868 -0.0141208 -0.00225628 -0.0214838 -0.000645149
internal_weight=702.181 471.181 232.236 231.001 157.973 175.724 238.945 66.2372 55.2256 101.095 84.5974 30.0206 36.2165 56.5113 137.85 91.7355 73.028 50.8058 120.499 40.4895 45.9727 41.5247 22.5206 17.179 106.877 71.2405 90.67 22.2222 32.7581 47.1799 42.0777 34.2126 19.5221 10.1354 22.4955 98.3115 37.6476 60.6639 20.2937
internal_count=3000 2033 995 967 657 757 1038 277 234 437 365 125 152 238 601 380 310 215 523 170 192 176 95 72 464 308 396 95 138 205 183 144 83 43 94 427 163 264 87
is_linear=0
shrinkage=0.04


Tree=4
num_leaves=40
num_cat=0
split_feature=10 6 7 14 6 14 12 7 10 15 14 10 15 10 9 12 9 15 6 14 9 14 14 2 11 14 14 10 14 2 7 10 10 13 7 4 5 6 14
split_gain=141.325 79.6109 38.4354 23.4922 22.1487 21.1713 12.8868 12.3534 11.9029 10.9126 10.2158 11.1939 9.40639 9.15309 9.01353 8.66266 8.29225 8.0878 7.7395 8.09676 7.51886 7.19385 8.00401 19.0672 7.81383 7.17486 6.83723 6.81858 6.46701 7.98365 11.7576 7.31172 6.3958 6.17125 5.94743 5.94266 5.5084 5.508 5.38454
threshold=0.29828596263423274 1.0000000180025095e-35 0.14903561777985372 -0.87241077353921892 1.0000000180025095e-35 0.73042928336993318 -1.1410411797517226 0.47340805150765725 1.1765663089992902 -0.86947537076637471 0.56603543137925094 0.73742613581676142 1.0000000180025095e-35 -0.47020934043519247 0.18123469949133383 -1.1410411797517226 0.66318084224402607 -0.86947537076637471 0.96497547614228207 -0.83131231054154842 -0.094163096367347404 -1.1190015515252421 0.89482313536061542 1.0000000180025095e-35 -0.75075250901448565 -0.37922921756717215 1.3469062283349917 0.51785604922549711 -1.2422969405182538 -0.34310940623491998 1.6289848466629573 0.62764109252112932 1.2863513522949226 0.59094540567690712 0.69641409969552215 1.0000000180025095e-35 1.0000000180025095e-35 -1.0253486410298362 1.2647093023396507
decision_type=2 2 2 2 2 2 2 2 2 2 2 2 2 2 2 2 2 2 2 2 2 2 2 2 2 2 2 2 2 2 2 2 2 2 2 2 2 2 2
left_child=1 3 4 16 10 6 14 13 12 35 11 20 27 38 33 -7 37 36 28 -20 -2 -15 24 -24 -23 -13 -19 -6 -4 34 31 -31 -33 -5 -30 -8 -17 -1 -3
right_child=2 7 18 5 8 15 9 -9 -10 -11 -12 25 -14 21 -16 17 -18 26 19 -21 -22 22 23 -25 -26 -27 -28 -29 29 30 -32 32 -34 -35 -36 -37 -38 -39 -40
leaf_value=0.047673942176888105 -0.0050535035539325856 -0.033615898737164383 0.053198473295825485 0.011245610893060096 0.049802206896479753 0.052026303190351418 0.010887908103449306 -0.043431544630526057 0.035607980978743688 -0.024898738020414344 0.069037764566798401 0.067275166780640161 -0.025647425251257773 0.016604281962021291 -0.02493170188049422 0.051946110227641736 0.065025002233849633 -0.01848012645888418 0.012679675206178263 -0.037204778549874626 0.044118932590679512 -0.054581866098772525 0.073813248084364139 -0.035011387933042315 -0.015175733471691905 0.034738678011923887 0.018034526726026467 0.0013322352205057558 -0.0565986111240687 -0.0091468077457877526 -0.024713408101782647 0.069872417561696862 0.022069435124934263 0.060834933193872079 -0.0010539414555963062 -0.032263536504136381 0.0098951533605784025 0.010070657777127033 -0.0047334595609206404
leaf_weight=9.101222410798071 11.719153299927713 93.84234830737114 5.0148268043994895 9.5710085779428535 7.1989718377590206 9.7876449823379499 26.751658156514168 67.587070286273956 33.716571763157845 75.615362629294395 28.670425802469254 22.740493685007095 12.436600282788275 12.041807547211645 6.0794135332107535 10.083084613084795 9.4886228740215284 17.262809380888939 8.3896381258964556 13.718750491738318 8.6461617648601514 10.955164283514017 4.6560005843639356 5.7665006518363953 30.371915429830555 20.728874891996384 15.636606886982916 13.083087503910063 4.7245642840862265 5.6868852376937893 8.3358695656061155 7.9082120954990414 10.32498839497566 6.9172562956809989 8.8843712508678419 6.3109865933656684 9.8562210500240308 19.77306687831879 11.604775056242941
leaf_count=38 49 412 21 41 30 41 113 299 139 331 117 93 53 52 26 42 40 75 36 59 36 48 20 25 132 85 67 55 20 24 36 33 43 29 38 27 41 84 50
internal_value=-2.74685e-05 -0.0126567 0.0255144 0.0039844 0.036549 -0.00167481 -0.0108057 -0.0289752 0.0189292 -0.0165173 0.0492032 0.0402947 0.00174175 -0.023202 0.0166997 0.0174607 0.032584 0.0110579 0.00148513 -0.0182747 0.0158228 -0.011242 -0.0177217 0.0136034 -0.0256217 0.0517598 -0.00112525 0.0185363 0.0100712 0.00535574 0.0161957 0.0304521 0.0428028 0.0320496 -0.0203372 0.00265117 0.0311599 0.0219233 -0.0304373
internal_weight=700.989 469.061 231.928 232.235 158.94 193.872 131.246 236.826 66.4352 108.678 92.5051 63.8347 32.7187 169.239 22.5677 62.6264 38.3629 52.8387 72.9881 22.1084 20.3653 63.7914 51.7496 10.4225 41.3271 43.4694 32.8994 20.2821 50.8797 45.8649 32.256 23.9201 18.2332 16.4883 13.6089 33.0626 19.9393 28.8743 105.447
internal_count=3000 2033 967 995 657 833 567 1038 277 471 380 263 138 739 96 266 162 225 310 95 85 277 225 45 180 178 142 85 215 194 136 100 76 70 58 140 83 122 462
is_linear=0
shrinkage=0.04


Tree=5
num_leaves=40
num_cat=0
split_feature=10 6 8 7 6 8 14 14 8 7 10 9 10 14 10 8 7 12 11 14 14 6 10 2 12 9 9 14 9 7 14 3 14 14 6 8 2 12 11
split_gain=130.173 74.2249 43.3324 35.0995 20.1359 14.3205 12.575 20.261 11.7806 11.5657 12.8576 11.1515 9.52863 9.25856 10.1782 9.01044 8.76776 8.35533 12.4575 7.58473 10.6138 9.13567 7.56421 7.84829 7.2174 8.61745 6.91355 6.87707 6.85688 6.57522 6.48885 6.48568 6.13975 8.37602 6.67766 6.06076 6.04247 6.22971 6.26294
threshold=0.29828596263423274 1.0000000180025095e-35 0.81112742772264268 0.14903561777985372 1.0000000180025095e-35 0.2001853531135723 -0.87241077353921892 0.73042928336993318 0.2001853531135723 1.4059787984750922 1.0000000180025095e-35 1.0074280870673777 1.1765663089992902 0.56603543137925094 0.73742613581676142 1.0000000180025095e-35 -0.13479026173197434 -1.1410411797517226 -0.52733642657787649 1.22361083934198 -0.7902138475438778 0.96497547614228207 0.84721117911239363 -0.34310940623491998 -0.39216269818200755 0.31893359742067445 -0.094163096367347404 1.141413913346639 -0.094163096367347404 0.83832703945143616 -0.37922921756717215 24.500000000000004 0.85372467236294491 -1.036804625529901 0.96497547614228207 0.56675059787901449 1.1590895994845241 -1.1410411797517226 1.0000000180025095e-35
decision_type=2 2 2 2 2 2 2 2 2 2 2 2 2 2 2 2 2 2 2 2 2 2 2 2 2 2 2 2 2 2 2 2 2 2 2 2 2 2 2
left_child=1 2 6 4 13 17 11 24 27 10 32 -1 -10 14 28 -9 36 18 -3 20 29 22 -22 -24 25 -8 -17 31 -2 -5 -16 -6 33 34 -7 -32 37 -4 -39
right_child=3 5 16 19 8 9 7 15 12 -11 -12 -13 -14 -15 30 26 -18 -19 -20 -21 21 -23 23 -25 -26 -27 -28 -29 -30 -31 35 -33 -34 -35 -36 -37 -38 38 -40
leaf_value=0.0053541687257239448 -0.0048565091768198124 -0.047455261837598482 0.077197021628892901 0.049158970561250036 0.0068429139321992197 -0.021504910828440024 0.0057251545366740885 -0.0023533554722889424 0.010772118781296467 -0.047697324178041053 0.025331903059191443 0.067450780992137013 0.056064805138087176 0.06572146023222207 0.064016929966922348 0.051926840255974466 0.0091164246421106109 -0.041562904631554022 0.0070773054192365594 0.042102125485844993 -0.028891300119926681 -0.042707992622823598 -0.027248647914726622 0.024814102525612398 -0.02892623587203421 -0.036736422231202596 -0.00064696866780762597 0.039756439024401513 0.042001528820846269 0.0018685448549974485 0.01760531830301228 -0.033860671442196059 0.0091390720633901731 -0.031967947783737072 0.030445773098627064 0.06306758932253978 0.081654970033056995 0.047914073312878766 0.011083051029052176
leaf_weight=20.509935796260837 11.706987708806993 11.910799339413645 5.4032522886991492 8.3302936404943484 20.763889580965046 8.7551856040954572 26.132374629378319 30.542198449373245 13.065855398774149 16.028612852096558 13.380080968141554 5.9752340465784064 17.235008925199509 28.907245814800262 22.937672451138496 11.462908670306208 16.090388849377632 107.82525628805161 15.328039079904554 6.6629364788532248 11.593941316008566 12.175821945071219 6.36793528497219 17.001989796757702 63.661305978894234 10.810949370265005 6.1487610042095175 6.5800758302211753 8.7172358781099302 10.806926831603048 13.696344554424288 8.9688451886177045 11.598507657647131 42.646474823355675 7.2262263894081107 7.1365941166877738 5.836806431412696 15.619272053241732 14.015667647123335
leaf_count=87 49 53 22 35 87 38 113 131 55 72 57 25 70 117 93 48 68 482 66 28 50 53 27 71 280 47 26 27 36 46 56 38 50 189 31 29 24 65 59
internal_value=-3.25258e-05 -0.0122125 0.00382124 0.0244111 0.0349104 -0.0280762 -0.00603046 -0.0105517 0.0181197 -0.0165722 -0.010605 0.0193636 0.0365344 0.046924 0.0384594 0.0107858 0.0341282 -0.0365625 -0.0167683 0.00142074 -0.00266904 -0.0128681 -0.00247663 0.0106278 -0.0207647 -0.00670063 0.0335718 0.00275371 0.0151429 0.0224537 0.0493394 -0.00543528 -0.017452 -0.0227126 0.00198534 0.033179 0.043974 0.037697 0.0304951
internal_weight=699.564 466.908 232.209 232.656 159.716 234.699 175.244 148.758 66.6137 99.6351 83.6065 26.4852 30.3009 93.1021 64.1948 48.1539 56.9654 135.064 27.2388 72.9398 66.2769 47.1397 34.9639 23.3699 100.605 36.9433 17.6117 36.3128 20.4242 19.1372 43.7706 29.7327 70.2264 58.6279 15.9814 20.8329 40.875 35.0382 29.6349
internal_count=3000 2033 995 967 657 1038 757 645 277 437 365 112 125 380 263 205 238 601 119 310 282 201 148 98 440 160 74 152 85 81 178 125 308 258 69 85 170 146 124
is_linear=0
shrinkage=0.04


Tree=6
num_leaves=40
num_cat=0
split_feature=6 8 8 7 14 14 7 7 14 9 8 14 12 12 11 6 0 14 3 12 7 7 14 11 8 5 14 14 14 12 15 13 13 9 8 7 14 3 4
split_gain=103.284 41.9413 24.0549 19.6032 17.5417 29.8376 13.7576 12.77 12.4939 11.1521 9.92114 8.8487 8.11832 7.96803 7.75373 6.93132 6.86208 6.39295 17.5443 6.27515 5.98372 5.50795 5.35854 5.33833 6.53166 5.84334 5.41482 5.28451 5.25394 6.19149 5.8467 5.18643 5.13653 9.41753 7.29498 5.24875 4.84705 4.7423 4.72924
threshold=1.0000000180025095e-35 0.93331584264445666 0.2001853531135723 1.4059787984750922 -0.87241077353921892 0.56603543137925094 0.16930889488784143 0.5747744370475959 1.4702016173280035 1.1451269849967185 0.077996938191758236 0.2372477273978863 -1.1410411797517226 -0.39216269818200755 -0.52733642657787649 -1.0253486410298362 1.0000000180025095e-35 -0.91350923653688942 6.5000000000000009 1.1055942649574231 1.6492581237709449 -0.70244202075563023 -0.83131231054154842 1.0000000180025095e-35 0.56675059787901449 1.0000000180025095e-35 0.2372477273978863 1.1003154503489683 -1.2422969405182538 -1.1410411797517226 -0.86947537076637471 0.37579537933822732 1.0000000180025095e-35 -0.57610923912003942 1.4220695023317129 -0.3983428641358146 -0.83131231054154842 19.500000000000004 -0.69670372610406028
decision_type=2 2 2 2 2 2 2 2 2 2 2 2 2 2 2 2 2 2 2 2 2 2 2 2 2 2 2 2 2 2 2 2 2 2 2 2 2 2 2
left_child=1 4 8 13 9 20 19 28 12 15 -8 -9 14 27 -2 21 -17 18 -14 -7 23 -1 -5 26 25 -25 -6 -4 -3 -30 31 -31 33 36 -34 -35 -15 -38 -10
right_child=2 7 3 22 5 6 10 11 38 -11 -12 -13 17 32 -16 16 -18 -19 -20 -21 -22 -23 -24 24 -26 -27 -28 -29 29 30 -32 -33 34 35 -36 -37 37 -39 -40
leaf_value=0.077786690258272631 -0.031830281064678681 0.084825029097179649 0.010891039265521447 -0.0029447323635652428 -0.0069825490869073531 0.035577306143692353 -0.022883728316995415 0.033582111991062494 0.041315224270856897 0.06897524003405385 0.032204303186784626 -0.038697449697668238 0.03638740667278148 0.062319146304031355 0.0068979983390979839 -0.03269944062239101 0.019262608783112471 -0.036915784872155459 -0.031972263502411058 0.0016741009863305203 -0.037166098069638574 0.020903467622778817 -0.048409938216041115 -0.016631486641784984 0.041521563046465031 0.01132039787164253 -0.033846176206161316 0.053393435036759272 0.073978742359079433 0.03739912161610244 0.027256062755461039 0.081234172184361311 -0.023856395147026446 0.010761255705312483 0.018884352418559468 -0.029027438546022234 0.041561212631610306 -0.014263400554390085 -0.0065750560781795584
leaf_weight=5.1271327286958694 14.854833558201788 6.1423956602811804 41.735178545117378 5.441222250461581 67.123702302575111 58.684400364756584 15.92468146979809 6.4230356961488706 5.2023022621870032 9.5099516063928586 7.7893600761890402 4.6879116594791412 7.6245948374271384 4.9841769188642493 18.663096338510513 4.9540752172470155 22.692344576120377 109.33702704310417 28.313460499048233 10.262538045644758 10.118096828460692 5.8098320215940422 17.447439834475517 21.089972391724586 6.6380280107259741 27.66077646613121 14.620234459638594 5.2717838883399954 10.106409087777136 9.5790912210941261 26.127173319458969 7.8640292584896079 31.686416953802109 9.5683329701423627 8.00320056080818 11.904426664114 4.8994094729423505 4.84002885222435 9.0190890580415708
leaf_count=21 66 25 179 24 288 244 69 27 22 39 33 20 33 21 80 21 95 488 125 43 45 24 79 91 28 118 63 22 41 39 109 32 138 41 34 52 21 21 39
internal_value=-3.72146e-05 0.0149146 -0.0158778 -0.0036137 0.00812901 0.00370911 0.0214918 0.0424669 -0.0251408 0.0301775 -0.00478894 0.00308604 -0.028011 0.00271652 -0.010266 0.0206147 0.00995132 -0.0321051 -0.0174691 0.0305309 -0.00748104 0.0475697 -0.0376017 -0.00529078 0.0042968 -0.000771816 -0.0117872 0.0156576 0.0497816 0.0457715 0.0392286 0.0571616 -0.00529974 0.00559758 -0.015238 -0.0112975 0.0302371 0.0138191 0.0109436
internal_weight=697.731 358.935 338.796 145.782 288.005 239.912 92.661 70.93 193.014 48.0933 23.714 11.1109 178.793 122.893 33.5179 38.5834 27.6464 145.275 35.9381 68.9469 147.251 10.937 22.8887 137.133 55.3888 48.7507 81.7439 47.007 59.8191 53.6767 43.5703 17.4431 75.886 36.1964 39.6896 21.4728 14.7236 9.73944 14.2214
internal_count=3000 1515 1485 632 1222 1022 389 293 853 200 102 47 792 529 146 161 116 646 158 287 633 45 103 588 237 209 351 201 246 221 180 71 328 156 172 93 63 42 61
is_linear=0
shrinkage=0.04


Tree=7
num_leaves=40
num_cat=0
split_feature=10 6 8 7 6 15 8 8 8 7 10 15 4 7 14 14 10 14 6 7 10 14 14 0 7 14 9 14 14 12 5 12 3 9 8 14 8 8 12
split_gain=119.166 64.3467 36.9311 30.5591 16.5736 14.7186 12.724 10.944 10.6865 10.48 9.07107 8.94123 8.71046 8.39583 8.2937 7.97154 9.24126 7.86577 8.06129 7.54599 7.32532 6.97308 6.93712 7.24834 6.87192 6.7288 7.67409 6.62427 8.11677 6.6225 6.29439 7.64836 6.68473 6.26697 5.69171 7.71971 5.60549 5.92348 5.78004
threshold=0.29828596263423274 1.0000000180025095e-35 0.81112742772264268 0.14903561777985372 1.0000000180025095e-35 -0.86947537076637471 0.32237376803538637 -0.41075672149549797 0.81112742772264268 1.4059787984750922 -0.140854210548296 1.0000000180025095e-35 -0.69670372610406028 -0.7227152978636181 0.85372467236294491 0.56603543137925094 0.73742613581676142 -0.87241077353921892 -1.0253486410298362 -0.13479026173197434 1.725491525477451 0.89482313536061542 -0.7902138475438778 5.5000000000000009 0.83832703945143616 0.56603543137925094 0.043535801561993201 0.73042928336993318 -0.66691845855086618 -0.39216269818200755 1.5000000000000002 -0.39216269818200755 3.5000000000000004 -0.094163096367347404 1.2998810874098992 -0.37922921756717215 1.177692672488085 0.56675059787901449 1.0000000180025095e-35
decision_type=2 2 2 2 2 2 2 2 2 2 2 2 2 2 2 2 2 2 2 2 2 2 2 2 2 2 2 2 2 2 2 2 2 2 2 2 2 2 2
left_child=1 2 5 4 15 7 12 -1 11 10 36 -6 14 -12 30 16 33 18 -7 -4 21 22 24 -24 -5 -19 29 28 -9 -27 32 -32 -3 -2 35 -18 37 38 -8
right_child=3 6 19 20 8 17 9 27 -10 -11 13 -13 -14 -15 -16 -17 34 25 -20 -21 -22 -23 23 -25 -26 26 -28 -29 -30 -31 31 -33 -34 -35 -36 -37 -38 -39 -40
leaf_value=-0.010601030971832428 -0.0052532288613830547 0.0037634484690447223 0.039928967420224275 0.045647100302787548 0.022467351723471897 0.054185117739370757 0.026478148051390149 0.045261850605297388 0.048302856342323681 -0.045323101479561631 0.059297976521315111 -0.011578256489103591 -0.04133059013507135 -0.0015909679022531153 0.016337228730171433 0.061274145314643813 0.057453275851530955 -0.026206344326196077 -0.0057773661806311202 0.0077143935458150875 0.019112817638174275 0.030477572838083809 -0.034681043444404244 0.016938720222389233 -0.014330564004241573 0.035831628935368488 -0.02906878702383665 0.050015332047927762 -0.0059271216782275102 -0.0077746375535003558 0.034103504032282982 -0.030665897203735401 -0.047536478553429504 0.039419816073277859 0.084551375615436908 0.021531268422941122 0.0016703997638247939 -0.035590317040233493 -0.028684658662842789
leaf_weight=22.451188459992409 11.723081558942797 4.9473913609981564 41.394505575299263 5.2929695397615415 32.09655687212944 4.868718460202218 5.9011645466089231 7.736665576696395 14.399076119065283 15.12236265838146 5.1635479182004955 20.053571432828903 93.260288074612617 12.147010058164595 8.178183972835539 29.129502817988396 20.868285357952118 64.032076418399811 13.629564419388771 16.182082906365395 25.386728569865227 6.6387718617916098 22.697922900319103 5.3849507421255103 7.233488142490387 9.0398649871349335 13.280541419982908 11.553748130798338 13.790777117013933 14.52767887711525 4.9974126070737839 7.007478713989256 22.76508255302906 8.7930813431739789 5.4775825291872016 17.682673767209053 18.496843978762627 26.772518336772919 6.2665651887655258
leaf_count=96 49 22 170 22 133 20 26 32 59 70 22 85 426 52 36 117 84 286 58 68 107 28 99 23 31 38 58 47 59 63 22 32 103 36 22 72 80 119 28
internal_value=-4.05793e-05 -0.0117688 0.00308795 0.0233048 0.0330613 -0.00605889 -0.0267195 0.0109539 0.0177982 -0.0149547 -0.00881078 0.00937561 -0.0342098 0.0165715 -0.0203444 0.0439047 0.0360658 -0.0139729 0.0100047 0.030875 0.00178318 -0.00752816 -0.0137413 -0.0247828 0.0110126 -0.0183696 -0.0047515 0.0255825 0.0124695 0.00895153 -0.0278975 -0.0037036 -0.0383781 0.0138933 0.0463976 0.0409765 -0.0164606 -0.0250729 -0.00193153
internal_weight=696.372 463.513 232.487 232.858 160.223 174.911 231.026 55.5324 66.5492 89.87 74.7477 52.1501 141.156 17.3106 47.8955 93.6742 64.5447 119.378 18.4983 57.5766 72.6348 47.2481 40.6093 28.0829 12.5265 100.88 36.8481 33.0812 21.5274 23.5675 39.7174 12.0049 27.7125 20.5162 44.0285 38.551 57.4371 38.9402 12.1677
internal_count=3000 2033 995 967 657 757 1038 234 277 397 327 218 641 74 215 380 263 523 78 238 310 203 175 122 53 445 159 138 91 101 179 54 125 85 178 156 253 173 54
is_linear=0
shrinkage=0.04


Tree=8
num_leaves=40
num_cat=0
split_feature=10 6 8 7 10 15 8 6 8 10 7 10 4 14 8 14 14 6 7 14 10 14 14 7 14 9 7 14 14 13 13 6 3 3 14 14 6 7 2
split_gain=109.943 60.0498 33.911 28.0328 15.6761 13.6198 12.1362 11.1219 10.053 9.7542 8.38656 8.27044 7.95715 8.11397 7.82294 9.96705 7.30253 7.36363 6.88442 6.75255 6.73589 6.41976 6.44437 6.30647 6.29923 7.12626 6.28818 6.0449 7.4161 6.02377 5.73412 5.72046 5.68902 5.67909 5.48243 7.69812 5.91869 5.37656 5.3175
threshold=0.29828596263423274 1.0000000180025095e-35 0.81112742772264268 0.14903561777985372 1.1765663089992902 -0.86947537076637471 0.2001853531135723 1.0000000180025095e-35 -0.41075672149549797 1.0000000180025095e-35 0.65586754547954673 0.51785604922549711 -0.69670372610406028 0.85372467236294491 0.81112742772264268 0.77152774636760368 -0.87241077353921892 -1.0253486410298362 -0.13479026173197434 -0.58472153255552495 1.725491525477451 0.89482313536061542 -0.7902138475438778 1.4059787984750922 0.56603543137925094 0.043535801561993201 0.8180537623434484 0.73042928336993318 -0.66691845855086618 -0.26965469967781203 -0.48480472601649183 1.0000000180025095e-35 23.500000000000004 1.0000000180025095e-35 0.85372467236294491 -1.036804625529901 0.96497547614228207 -0.053697153300023483 1.1590895994845241
decision_type=2 2 2 2 2 2 2 2 2 2 2 2 2 2 2 2 2 2 2 2 2 2 2 2 2 2 2 2 2 2 2 2 2 2 2 2 2 2 2
left_child=1 2 5 4 7 8 12 -2 -1 23 -11 -9 13 19 15 31 17 -7 38 29 21 22 26 34 -18 37 -5 28 -10 -3 -29 -6 -13 -14 35 36 -8 -26 -4
right_child=3 6 18 20 14 16 9 11 27 10 -12 32 33 -15 -16 -17 24 -19 -20 -21 -22 -23 -24 -25 25 -27 -28 30 -30 -31 -32 -33 -34 -35 -36 -37 -38 -39 -40
leaf_value=-0.010204856799739368 0.031537627949681291 -0.039442485963276368 0.032281685370899246 0.046203145846601526 0.039931336495556351 0.051598772747905461 -0.020102744091363884 0.031292657755568574 0.043130869316439682 0.030013869544157429 -0.033438719167691353 0.0052317865866873562 0.0029701023144977834 0.015607813241247657 0.067770751746360616 0.06304909509401227 -0.025379350256915446 -0.0055542329738017858 0.0073938264539618569 -0.042621183713313596 0.018272818912497386 0.029068515787924194 -0.023969060172037288 -0.047675115777311421 0.022301634513228828 -0.02815031616260542 -0.011947616321658985 0.019011553618098104 -0.0056987723658080769 0.012035566498202652 0.07522527531722549 0.011314087180057416 -0.035251226634905042 -0.043517470855623061 0.0087227780940449407 -0.030391300869042747 0.028848734030778429 -0.017979157738828518 0.073120525672120157
leaf_weight=22.391121476888657 47.086958333849907 5.9471899569034585 35.663402006030083 4.8534842282533628 26.076022356748581 4.9074123799800882 8.6426339000463468 10.093259796500204 7.7929502874612799 12.111443042755129 4.5980305373668662 12.865056082606317 4.4353495240211478 8.2171494364738447 17.480173483490944 17.669771909713745 63.485083341598511 13.610425740480423 16.207789734005928 21.798309668898582 25.489440023899078 6.681254342198371 27.88157807290554 12.075118094682692 15.561851829290388 13.167614400386809 7.6887380331754684 5.6813438385725021 13.770070120692255 9.3628676384687388 5.937779098749159 19.559399321675301 9.7734367549419385 80.820687174797058 11.614919692277907 41.893723472952843 7.2815817743539801 8.0416002124547976 5.9527799785137168
leaf_count=96 192 27 146 20 105 20 38 42 32 51 21 54 20 36 70 71 286 58 68 100 107 28 122 57 66 58 33 23 59 42 24 81 42 376 50 189 31 35 24
internal_value=-4.42964e-05 -0.0113667 0.00296515 0.022337 0.031661 -0.00583869 -0.0259098 0.0190887 0.0105056 -0.0152874 0.0125533 0.00118009 -0.0338994 -0.0203572 0.0440829 0.0375421 -0.013486 0.00959189 0.02951 -0.0283212 0.00170904 -0.00725393 -0.0132573 -0.0209949 -0.0177486 -0.00457422 0.0105551 0.0244808 0.0119484 -0.00796108 0.0477387 0.0276659 -0.0122454 -0.041099 -0.0163549 -0.0213927 0.00228104 0.00857813 0.0381233
internal_weight=694.169 460.97 232.171 233.199 160.604 174.347 228.799 79.8187 55.5733 98.2175 16.7095 32.7318 130.582 45.3255 80.7854 63.3052 118.774 18.5178 57.824 37.1084 72.5945 47.1051 40.4238 81.508 100.256 36.7711 12.5422 33.1821 21.563 15.3101 11.6191 45.6354 22.6385 85.256 69.4329 57.8179 15.9242 23.6035 41.6162
internal_count=3000 2033 995 967 657 757 1038 330 234 437 72 138 601 205 327 257 523 78 238 169 310 203 175 365 445 159 53 138 91 69 47 186 96 396 308 258 69 101 170
is_linear=0
shrinkage=0.04


Tree=9
num_leaves=40
num_cat=0
split_feature=10 6 8 7 10 15 8 6 8 7 10 15 4 14 8 14 13 3 14 9 12 14 7 6 0 14 14 8 1 7 13 10 14 14 10 0 15 13 3
split_gain=101.489 56.0605 31.1673 25.7469 14.4332 12.6049 11.5024 10.1889 9.24279 9.23988 10.3388 7.89672 7.61036 7.57064 7.24625 9.23391 7.18133 7.17025 9.98876 7.07533 6.60111 8.46535 11.1128 6.53981 9.97551 6.40634 6.35794 6.12114 5.8606 8.80583 5.62343 5.60148 5.53276 6.78593 5.51259 6.30293 5.45486 7.9003 5.40205
threshold=0.29828596263423274 1.0000000180025095e-35 0.81112742772264268 0.14903561777985372 1.1765663089992902 -0.86947537076637471 0.2001853531135723 1.0000000180025095e-35 -0.41075672149549797 1.4059787984750922 -0.140854210548296 1.0000000180025095e-35 -0.69670372610406028 0.85372467236294491 0.81112742772264268 0.56603543137925094 1.0000000180025095e-35 1.5000000000000002 -0.87241077353921892 -0.6449586880847098 -1.1410411797517226 -0.7902138475438778 0.4936813286156449 0.96497547614228207 5.5000000000000009 -0.58472153255552495 -0.83131231054154842 1.177692672488085 1.0000000180025095e-35 1.5681650153389941 -0.26965469967781203 0.84721117911239363 0.73042928336993318 -0.66691845855086618 0.51785604922549711 2.5000000000000004 -0.86947537076637471 0.16064535299954749 1.0000000180025095e-35
decision_type=2 2 2 2 2 2 2 2 2 2 2 2 2 2 2 2 2 2 2 2 2 2 2 2 2 2 2 2 2 2 2 2 2 2 2 2 2 2 2
left_child=1 2 5 4 7 8 12 -2 -1 10 27 34 13 25 15 -6 -12 -7 19 -19 -4 -22 36 24 28 30 -25 -8 -5 31 -3 -30 33 -10 -9 -36 37 -23 -14
right_child=3 6 20 23 14 17 9 11 32 -11 16 -13 38 -15 -16 -17 -18 18 -20 -21 21 22 -24 26 -26 -27 -28 -29 29 -31 -32 -33 -34 -35 35 -37 -38 -39 -40
leaf_value=-0.0098229809435751141 0.030172149673536829 -0.038403958932852839 0.056731244287722075 -0.015402333303604623 0.025457350164447463 -0.040644143814636567 -0.025293343133259288 0.044120016647482781 0.041153279513220273 -0.043632694974865167 0.038756663136631085 -0.024219716082480573 0.0028484398747868735 0.014915918199852033 0.065056347980358059 0.058127727980310899 -0.010255922266088258 -0.015876849235129113 -0.014686887091219349 0.040040160853578137 0.051576225303096274 0.010549171754973117 -0.045662602237242361 0.010320459338735053 0.046673355609190212 -0.041568307737764681 -0.034011707424897647 0.002084914191594582 -0.0033339969129262022 -0.030858852877811076 0.011508808586048551 0.044756527376096242 0.045643716366871687 -0.0054789818296574538 -0.027732563756220751 0.027795568118076208 0.006762926708645727 0.073201666717306976 -0.042489685261549275
leaf_weight=22.33234840631485 47.245821207761765 5.8653651475906381 10.623604059219359 18.862257033586502 43.01781103014946 13.334326937794684 44.909114271402359 7.3383517116308239 7.8397330641746512 15.020119875669478 10.368964910507204 12.280049681663511 4.4397092163562766 8.2536151111125928 17.480977758765221 20.409009546041489 8.8788002878427488 5.6581807881593695 89.120739713311195 10.053988620638846 11.579230710864065 6.6849925071001 4.6203408539295188 8.4883222132921237 9.4097999185323697 21.46324810385704 13.264611944556234 18.427178964018822 5.8512135446071687 5.1946139633655539 9.3989925980567897 11.475679680705069 11.664997115731238 13.749977946281435 6.3624583929777128 6.7305678278207779 18.294815018773086 6.2131913155317307 79.491714656352997
leaf_count=96 192 27 43 81 175 59 203 30 32 72 44 53 20 36 70 82 38 24 398 42 47 27 20 36 39 100 59 80 25 23 42 47 47 59 27 28 76 25 376
internal_value=-4.74536e-05 -0.010982 0.00284855 0.0214218 0.0303434 -0.00562738 -0.0251334 0.0182909 0.0100807 -0.0147744 -0.00952577 0.00113054 -0.0329766 -0.0197007 0.0422542 0.0359698 0.0161477 -0.0130166 -0.00950252 0.0199036 0.0282333 0.0218452 0.0122325 0.00163921 0.0094986 -0.02748 -0.0167126 -0.0173279 0.00104585 0.0148216 -0.00767029 0.0285166 0.0234472 0.0114543 0.016367 0.000812087 0.020808 0.0407295 -0.0400914
internal_weight=691.699 458.287 231.77 233.412 160.865 173.754 226.517 79.9572 55.5871 97.6042 82.5841 32.7114 128.913 44.9812 80.9078 63.4268 19.2478 118.167 104.833 15.7122 58.0162 47.3926 35.8133 72.5465 50.7936 36.7276 21.7529 63.3363 41.3838 22.5215 15.2644 17.3269 33.2547 21.5897 20.4314 13.093 31.193 12.8982 83.9314
internal_count=3000 2033 995 967 657 757 1038 330 234 437 365 138 601 205 327 257 82 523 464 66 238 195 148 310 215 169 95 283 176 95 69 72 138 91 85 55 128 52 396
is_linear=0
shrinkage=0.04


Tree=10
num_leaves=40
num_cat=0
split_feature=10 6 8 7 6 15 8 8 7 10 8 10 12 11 14 10 3 14 15 14 14 6 2 10 7 5 12 14 3 2 2 14 8 14 7 15 7 11 12
split_gain=93.7313 52.3335 28.6918 23.6633 13.3707 11.6606 10.9193 8.91779 8.76568 9.74006 8.50334 7.71406 7.6081 11.4557 6.88008 8.27327 6.73972 9.22509 6.31227 6.24085 8.1234 7.75883 6.23317 8.29164 6.07019 5.6088 5.44183 5.69459 5.41538 5.36479 6.23748 5.35544 5.34857 5.34612 7.685 6.79213 5.21092 5.11673 5.04644
threshold=0.29828596263423274 1.0000000180025095e-35 0.81112742772264268 0.14903561777985372 1.0000000180025095e-35 -0.86947537076637471 0.2001853531135723 0.077996938191758236 1.4059787984750922 1.0000000180025095e-35 -0.41075672149549797 1.1765663089992902 -1.1410411797517226 -0.52733642657787649 0.56603543137925094 0.73742613581676142 1.5000000000000002 -0.87241077353921892 1.0000000180025095e-35 1.22361083934198 -0.7902138475438778 0.96497547614228207 -0.34310940623491998 0.62764109252112932 0.59504771415558355 1.0000000180025095e-35 1.1055942649574231 0.85372467236294491 2.5000000000000004 0.94448974152460352 -0.34310940623491998 -0.25593382857416047 0.44456218295720046 0.56603543137925094 1.0000000180025095e-35 1.0000000180025095e-35 1.2843391358271661 0.36632790316856034 -1.1410411797517226
decision_type=2 2 2 2 2 2 2 2 2 2 2 2 2 2 2 2 2 2 2 2 2 2 2 2 2 2 2 2 2 2 2 2 2 2 2 2 2 2 2
left_child=1 2 5 4 14 10 12 18 9 26 -1 -9 13 -3 15 -2 -7 -18 37 20 -5 22 -22 -24 38 -15 27 -8 -14 30 -12 -17 -33 35 -35 -19 -25 -6 -4
right_child=3 6 24 19 7 16 8 11 -10 -11 29 -13 28 25 -16 31 17 33 -20 -21 21 -23 23 36 -26 -27 -28 -29 -30 -31 -32 32 -34 34 -36 -37 -38 -39 -40
leaf_value=-0.0094548864381334471 0.010727587285325449 -0.04349414289099706 0.059730078397629019 0.019589526936052391 0.025789761250939364 -0.039523552484985104 -0.015611709781199917 0.0087939930931118168 -0.042667443567619541 0.021749915873398959 0.01114643293136186 0.047719275457721907 -0.014394925397615461 -0.016123932252151231 0.054950015276789915 0.052630947488333461 0.019039210607953792 -0.012461126713135998 -0.021812295908880591 0.038153466911459634 -0.027830492145733108 -0.039429494115094048 -0.033213384059138672 0.040803179186768547 -0.0032206785340009869 0.032890937987999178 -0.037424775126963315 0.018093382375856139 -0.040852468237106913 -0.0094923897821482962 0.049886623351227337 0.0063390973515383047 0.051424432186235387 0.014965206043318125 -0.02466193339112115 -0.04269955308184837 -0.0017625529140828493 -0.018330136363524846 0.02653001961070732
leaf_weight=22.274903550744057 20.751413121819496 11.199787482619287 8.9584993124008161 19.326111823320389 15.829965576529505 13.167302042245863 44.774612441658974 14.785060599446295 14.750999853014944 13.596109822392462 13.287942737340929 18.140526190400124 14.442781463265417 7.0171701610088331 29.167007580399513 26.685943439602852 15.765024110674856 39.251053854823112 12.333378478884695 6.7649320363998404 10.309716403484339 11.709153696894644 5.6425500363111558 10.481038197875025 8.9578388780355436 7.9870110005140305 14.134059503674505 9.7704699337482435 86.581546798348427 6.7093573063611975 13.311103418469427 10.624079018831255 6.9734359532594672 19.166904762387276 13.238768786191939 17.047082930803299 8.2032750695943815 5.7274305969476691 40.182096391916275
leaf_count=96 85 53 36 81 65 59 202 62 72 57 55 73 67 31 117 107 66 179 53 28 45 53 25 43 38 35 64 42 415 28 55 43 28 82 59 78 35 24 164
internal_value=-5.02302e-05 -0.0106113 0.00273736 0.020559 0.0291005 -0.00542129 -0.0243804 0.0154142 -0.0142731 -0.00918231 0.00967673 0.0302401 -0.0320883 -0.0128824 0.0388081 0.0315688 -0.0125551 -0.00915602 0.00101052 0.00157209 -0.0021962 -0.0112808 -0.00176495 0.00928162 0.0270622 0.00996762 -0.0153058 -0.00957423 -0.03707 0.0224709 0.0305334 0.041335 0.0242052 -0.0141671 -0.00122377 -0.0216173 0.0221149 0.0140679 0.0325825
internal_weight=689.027 455.572 231.318 233.455 161.018 173.219 224.255 66.8164 97.0263 82.2753 55.5833 32.9256 127.228 26.204 94.2019 65.0349 117.636 104.469 33.8908 72.4368 65.6718 46.3457 34.6366 24.3269 58.0984 15.0042 68.6791 54.5451 101.024 33.3084 26.599 44.2835 17.5975 88.7038 32.4057 56.2981 18.6843 21.5574 49.1406
internal_count=3000 2033 995 967 657 757 1038 277 437 365 234 135 601 119 380 263 523 464 142 310 282 201 148 103 238 66 308 244 482 138 110 178 71 398 141 257 78 89 200
is_linear=0
shrinkage=0.04


Tree=11
num_leaves=40
num_cat=0
split_feature=10 6 8 7 10 8 14 14 9 6 7 4 0 10 3 10 7 8 14 4 10 7 14 5 14 0 7 8 5 3 0 9 8 6 7 8 8 4 8
split_gain=86.6179 48.8579 26.4055 21.7898 12.5084 10.3917 8.65561 13.9721 8.99894 8.60343 8.45641 7.74014 7.0152 7.00136 6.9328 6.68123 7.53853 6.53312 8.42916 5.9415 5.87904 5.75111 5.71081 5.56815 5.32275 6.40571 5.73925 5.22041 5.30484 5.21925 6.46106 5.18762 5.12556 4.95211 5.22602 4.78473 5.65801 4.82707 4.74683
threshold=0.29828596263423274 1.0000000180025095e-35 0.81112742772264268 0.14903561777985372 1.1765663089992902 0.32237376803538637 0.8126262093652743 -0.87241077353921892 1.0074280870673777 1.0000000180025095e-35 1.4059787984750922 -0.69670372610406028 1.0000000180025095e-35 0.51785604922549711 3.5000000000000004 -0.140854210548296 -0.7227152978636181 0.81112742772264268 0.77152774636760368 0.93779181900810482 1.725491525477451 -0.13479026173197434 0.89482313536061542 1.5000000000000002 -0.7902138475438778 5.5000000000000009 0.83832703945143616 1.2998810874098992 1.0000000180025095e-35 23.500000000000004 2.5000000000000004 -0.1630125453320177 0.44456218295720046 1.0000000180025095e-35 -0.90517479183550742 1.177692672488085 0.56675059787901449 -0.28807983982601909 -1.266075625948196
decision_type=2 2 2 2 2 2 2 2 2 2 2 2 2 2 2 2 2 2 2 2 2 2 2 2 2 2 2 2 2 2 2 2 2 2 2 2 2 2 2
left_child=1 2 6 4 9 11 7 8 -1 32 15 12 -3 -11 -14 35 -17 18 33 38 22 27 24 -16 26 -26 -5 28 -4 30 -15 -18 -2 34 -6 36 -7 -37 -8
right_child=3 5 21 20 17 10 19 -9 -10 13 -12 -13 14 29 23 16 31 -19 -20 -21 -22 -23 -24 -25 25 -27 -28 -29 -30 -31 -32 -33 -34 -35 -36 37 -38 -39 -40
leaf_value=0.0025755899945893649 0.019138314360448303 0.024612880912406435 0.038578249551678531 0.040100840477207515 0.067407537091764808 0.00043216524323193685 -0.016464041956249734 -0.017266880701545129 0.057728476355556099 0.028465145117588631 -0.041352057911487043 -0.037616786880395797 0.010338077626182609 -0.031988256428478121 -0.0421667410636467 0.054071614960889358 0.019083733345954781 0.06075688440318093 0.056586242125529922 -0.025115185525849962 0.016929748664690644 0.0057438246295696375 0.027193160049437851 -0.006243773716563661 -0.032100356313206922 0.016621904444977288 -0.014439868796026203 0.046594370319240949 -0.0037409978725797773 -0.033777856742881557 0.026815730302696076 -0.033650303315326931 0.048016688259576001 0.0089087527548194056 0.025455985518366003 -0.01442033114985772 -0.032871640512044303 0.027349734204381467 0.022312564449864323
leaf_weight=20.711783647537235 33.50422266125679 5.5890928059816352 9.8626142740249652 5.3861029595136625 6.2380578368902233 11.916635662317274 6.0080658346414557 101.55878190696239 6.1356449574232093 10.176454141736029 14.081149801611899 87.95149639248848 7.9456050246953955 4.7318191528320339 22.850042283535004 5.266535788774493 7.0749163925647744 17.389084205031395 17.639033913612366 6.5577623695135108 25.565693393349648 16.273063361644745 6.7201132476329795 9.8926874846219999 22.036235705018047 5.3695413619279853 7.2317869663238525 22.953215509653091 9.1234738677740079 9.6352265924215299 8.1195412427186948 5.1627998501062367 13.918953880667685 19.710714519023895 19.931865617632866 10.923773050308229 25.904880046844482 7.4425687491893759 31.711376443505287
leaf_count=87 136 25 40 22 25 54 26 457 25 42 70 426 36 20 108 22 30 70 71 29 107 68 28 46 99 23 31 93 37 42 34 22 56 81 80 48 119 32 133
internal_value=-5.26922e-05 -0.0102527 0.00262976 0.0197478 0.0279403 -0.0236512 -0.00522408 -0.0104828 0.0151801 0.0167337 -0.0129491 -0.0306493 -0.0174075 0.000936402 -0.0231795 -0.00752186 0.0140569 0.039033 0.0330858 0.0100265 0.00150747 0.0259277 -0.00692748 -0.0313132 -0.0126565 -0.0225543 0.00884151 0.0337593 0.0182424 -0.0115219 0.00516434 -0.0031635 0.0276143 0.024051 0.0354559 -0.0142443 -0.0223784 0.0025061 0.0161361
internal_weight=686.202 452.898 230.896 233.304 160.995 222.002 172.683 128.406 26.8474 80.0862 87.7733 134.229 46.2774 32.663 40.6883 73.6921 17.5043 80.9088 63.5197 44.2772 72.3095 58.2124 46.7438 32.7427 40.0237 27.4058 12.6179 41.9393 18.9861 22.4866 12.8514 12.2377 47.4232 45.8806 26.1699 56.1879 37.8215 18.3663 37.7194
internal_count=3000 2033 995 967 657 1038 757 569 112 330 397 641 215 138 190 327 74 327 257 188 310 238 203 154 175 122 53 170 77 96 54 52 192 186 105 253 173 80 159
is_linear=0
shrinkage=0.04


Tree=12
num_leaves=40
num_cat=0
split_feature=10 6 8 6 8 14 14 10 10 9 7 8 14 14 7 8 2 13 10 4 14 14 2 10 9 7 4 14 4 8 0 8 13 2 15 14 15 15 13
split_gain=80.604 43.0054 24.8117 20.8601 13.6575 13.8902 14.6937 12.6587 11.8957 15.6076 11.4956 11.3711 11.246 8.35924 8.03706 10.3115 7.76968 7.25924 7.84321 6.80349 6.44722 7.72415 9.19897 6.8536 6.39926 6.36929 5.52466 6.1649 5.28003 4.95131 4.9342 5.92157 4.97149 4.70506 7.64623 4.64289 7.09816 4.55921 7.68039
threshold=0.078715876042968341 1.0000000180025095e-35 0.93331584264445666 0.96497547614228207 0.6889390128008287 0.73042928336993318 -0.42032768056484276 1.1765663089992902 0.73742613581676142 0.11238525052666352 0.89914687077539923 0.6889390128008287 -0.91350923653688942 0.85372467236294491 0.47340805150765725 1.177692672488085 -0.66500919317480078 0.16064535299954749 1.1765663089992902 -0.28807983982601909 -1.2011984775205835 0.85372467236294491 -0.55770926419484057 -0.36042429713956031 -0.71380813704938006 -0.70244202075563023 0.93779181900810482 -1.1190015515252421 -0.69670372610406028 -1.3882640408700102 3.5000000000000004 1.0000000180025095e-35 0.59094540567690712 -0.66500919317480078 -0.86947537076637471 1.798989321309368 -1.0000000180025095e-35 -0.86947537076637471 1.4515455110316264
decision_type=2 2 2 2 2 2 2 2 2 2 2 2 2 2 2 2 2 2 2 2 2 2 2 2 2 2 2 2 2 2 2 2 2 2 2 2 2 2 2
left_child=1 2 12 4 5 6 8 -5 9 25 -6 -9 24 29 15 20 -8 35 -19 -17 23 -22 -23 -3 -1 -2 27 -4 -24 -14 31 -18 -32 -15 -35 36 -7 -31 -39
right_child=3 14 26 7 10 17 16 11 -10 -11 -12 -13 13 33 -16 19 30 18 -20 -21 21 22 28 -25 -26 -27 -28 -29 -30 37 32 -33 -34 34 -36 -37 -38 38 -40
leaf_value=-0.0095758934957965273 0.0089161032718799247 -0.019529911025726404 0.072669197593005941 -0.029629508146510729 0.046012586002352571 0.053879723454764293 -0.023151690142034911 -0.0030808715684517026 0.039215891148882069 0.039539778411986776 -0.0042105780700662787 0.065591693099500303 -0.041677352091245318 -0.015742786946646655 -0.037555386531192683 -0.008220321328788199 -0.020845198012291864 -0.004057157226673198 0.045849551111655014 0.043559026329339237 -0.034162942302233011 0.032743517723032321 0.0052150763488137235 0.027896643064410798 0.033575993488412489 -0.049045854379491501 -0.0029517221795573364 0.026871770588211989 -0.040080636661770801 -2.9025655630470789e-05 0.030547506990794782 0.01945640953727713 -0.010159254289259241 0.044425733243301513 -0.00068514432617270901 0.082131816857202777 0.0016540022104331573 -0.024151953847160876 0.025216827589572791
leaf_weight=8.3245766162872332 4.8752295076847068 15.279695883393289 5.484571933746337 22.450659111142159 48.435731172561646 15.672000378370289 21.590126752853394 15.906307026743891 33.895707786083221 9.940936937928198 8.5842992514371854 5.0932868719100943 11.190373882651327 11.807833567261694 55.508688896894455 13.097295016050341 16.431479275226597 12.122792303562166 8.6218119859695417 5.884195163846015 78.275970980525017 6.4220898598432568 6.5675180405378386 7.1596308648586264 16.197196930646896 8.029032379388811 8.0971787571907026 32.99686273932457 11.037945121526715 27.800128355622292 16.750097051262859 9.0439217537641508 6.7287087589502326 9.0774039328098279 17.801301851868633 5.2068984657526007 5.6704323738813409 54.774071216583252 5.5531117767095557
leaf_count=35 21 71 22 101 197 64 92 68 138 42 37 21 51 50 273 57 70 51 35 25 376 29 29 32 67 35 34 134 52 119 70 38 28 37 77 21 24 252 25
internal_value=-5.45422e-05 -0.0113291 0.00134186 0.0166837 0.021455 0.0159037 0.0090262 -0.00874862 0.0241799 0.00187084 0.0384515 0.0135751 -0.00603444 -0.0104698 -0.0246279 -0.0196352 -0.00316238 0.0344136 0.0166849 0.00783109 -0.0238146 -0.0280735 -0.00823538 -0.0043977 0.0189269 -0.0271478 0.0270799 0.0333991 -0.0231836 -0.016614 0.00565344 -0.00653788 0.0188815 0.0053038 0.0145496 0.0482661 0.040004 -0.0134314 -0.0196076
internal_weight=683.387 408.338 209.105 275.049 231.599 174.579 127.285 43.4503 56.7409 22.8452 57.02 20.9996 162.526 138.004 199.233 143.724 70.5443 47.2939 20.7446 18.9815 124.743 102.304 24.0276 22.4393 24.5218 12.9043 46.5786 38.4814 17.6055 99.3177 48.9542 25.4754 23.4788 38.6865 26.8787 26.5493 21.3424 88.1273 60.3272
internal_count=3000 1847 903 1153 963 729 534 190 236 98 234 89 713 611 944 671 298 195 86 82 589 486 110 103 102 56 190 156 81 447 206 108 98 164 114 109 88 396 277
is_linear=0
shrinkage=0.04


Tree=13
num_leaves=40
num_cat=0
split_feature=10 8 7 10 15 7 14 14 8 14 15 14 14 11 14 14 2 8 8 8 8 13 7 2 8 7 9 7 5 14 7 13 3 14 13 14 12 14 14
split_gain=74.5349 27.9935 19.6896 16.0183 15.7957 14.5673 11.4083 10.6183 10.1262 9.33025 8.09862 7.60521 12.8757 7.44554 7.28058 7.0549 6.93732 5.9997 5.99961 5.99587 5.93482 5.51103 5.20947 5.51844 5.81724 5.12845 4.85292 4.81572 4.81084 4.78311 5.80204 5.27898 4.7616 6.20647 4.59207 4.56165 4.15705 3.98015 3.97365
threshold=0.078715876042968341 1.177692672488085 1.4667986297990554 1.1765663089992902 -0.86947537076637471 1.3654322442591169 -0.87241077353921892 0.85372467236294491 0.6889390128008287 1.8400877843070387 1.0000000180025095e-35 0.15505080140254515 1.141413913346639 -0.75075250901448565 0.56603543137925094 -1.0779030885275718 1.3736894574444447 0.6889390128008287 -0.16637989165186987 0.32237376803538637 1.0000000180025095e-35 0.37579537933822732 -0.51998252678374091 1.0000000180025095e-35 -0.16637989165186987 -0.66189546653965492 1.6270731277494106 -0.56052908099971621 1.5000000000000002 0.73042928336993318 -0.66189546653965492 1.0000000180025095e-35 22.500000000000004 0.072853875407204019 1.2363954846929466 -0.66691845855086618 -0.39216269818200755 1.0000000180025095e-35 1.3058077653373212
decision_type=2 2 2 2 2 2 2 2 2 2 2 2 2 2 2 2 2 2 2 2 2 2 2 2 2 2 2 2 2 2 2 2 2 2 2 2 2 2 2
left_child=1 4 3 8 20 11 16 13 9 15 14 -3 36 34 19 18 -6 25 -2 37 26 27 23 24 -9 -12 32 -22 -10 31 -31 -17 -1 -34 -8 -27 -13 -5 -25
right_child=2 5 -4 10 6 -7 7 22 28 -11 17 12 -14 -15 -16 29 -18 -19 -20 -21 21 -23 -24 38 -26 35 -28 -29 -30 30 -32 -33 33 -35 -36 -37 -38 -39 -40
leaf_value=-0.025558946477126528 0.008586579101706909 0.034621317432971602 -0.014878392449585115 0.028294482016874511 -0.0085800875741971015 -0.0352600472366464 -0.047919552817287533 -0.0063124127010918294 0.0197780537295918 0.05533456530342843 0.034640022471478134 0.0068750614045496273 0.04412204058799276 -0.024033143289680824 0.057582728648027832 -0.020438855364079429 0.040933802083770329 0.043179320191342317 0.060058297242424043 0.04959791001746415 0.021206228464996497 0.042968936095902514 -0.020373437361056995 0.0094871561693649145 0.048279143777134589 0.022271659307008185 0.02474003767375484 -0.015377611233174032 0.052020135132490965 0.04356593544857755 -0.001780791985729937 0.0033243157947048471 -0.021470192389451231 0.032093977496477744 -0.0095411758465764572 -0.021841233495637366 -0.031652492577716525 -0.0037111812558649586 -0.036805408965134769
leaf_weight=22.721561625599861 11.199202731251718 29.296181008219719 29.446581602096558 26.339620977640152 52.872625797986984 8.6496340930461866 40.589370593428612 5.8255542367696762 26.399496540427208 5.4327743202447882 6.3947041183710125 8.1680341660976428 9.075382247567175 108.24525032937527 22.625341966748238 31.406329572200775 4.9514893889427176 8.5924003273248655 5.3562214225530616 17.300880387425423 12.461089700460438 7.9134510010480872 30.225267842411995 5.5968978554010373 6.732326343655588 5.5807134658098247 5.923655539751052 10.701005816459656 10.290825918316839 6.7721106559038189 13.541998594999312 28.559133917093277 7.226677939295767 6.6423998326063156 5.6872815489768973 11.437824353575705 9.9262848049402255 8.1374190747737867 6.3133593797683716
leaf_count=101 47 122 133 107 240 42 197 26 109 22 26 34 37 517 92 137 22 35 22 70 52 33 139 25 29 23 26 46 42 28 57 122 33 29 27 48 42 33 28
internal_value=-5.66422e-05 -0.010951 0.0160281 0.0197372 -0.0155447 0.0130794 -0.0200664 -0.024413 0.0107937 0.00432606 0.0314164 0.0204842 0.00524071 -0.0297742 0.038654 0.00146431 -0.0043402 0.0145912 0.0252394 0.0303827 0.000863768 0.0141503 -0.00926624 0.00445439 0.0229543 0.00409974 -0.00884796 0.00430431 0.0288212 -0.00343863 0.0133364 -0.00912141 -0.0142855 0.00418361 -0.0432029 -0.00737575 -0.0142606 0.0207404 -0.0150515
internal_weight=680.558 405.745 274.814 245.367 340.629 65.1155 267.039 209.215 138.958 102.268 106.409 56.4659 27.1697 154.522 74.4033 96.835 57.8241 32.0056 16.5554 51.7779 73.5898 31.0755 54.6934 24.4681 12.5579 23.4132 42.5143 23.1621 36.6903 80.2796 20.3141 59.9655 36.5906 13.8691 46.2767 17.0185 18.0943 34.477 11.9103
internal_count=3000 1847 1153 1020 1570 277 1250 988 586 435 434 235 113 741 302 413 262 132 69 210 320 131 247 108 55 97 189 98 151 344 85 259 163 62 224 71 76 140 53
is_linear=0
shrinkage=0.04


Tree=14
num_leaves=40
num_cat=0
split_feature=10 6 8 6 12 7 8 14 12 14 7 10 14 10 8 7 8 11 4 14 3 14 2 0 8 2 14 7 12 15 2 6 4 3 7 11 14 10 3
split_gain=68.9145 39.6937 21.5444 18.6095 13.6119 10.9319 11.1808 9.98256 11.9042 11.9339 9.94529 8.32162 8.04914 10.7297 8.10331 7.57232 8.84082 7.30927 6.1709 5.82416 8.84701 7.03892 8.43971 5.91466 5.5524 5.39597 5.03799 7.37769 5.41009 6.38653 5.36313 4.98398 4.9692 4.75934 5.589 7.74227 4.53348 4.48252 5.27322
threshold=0.078715876042968341 1.0000000180025095e-35 0.93331584264445666 1.0000000180025095e-35 -1.1410411797517226 1.2843391358271661 0.077996938191758236 -0.91350923653688942 -1.1410411797517226 -0.29703229157183103 0.14903561777985372 0.29828596263423274 0.56603543137925094 0.73742613581676142 0.56675059787901449 0.47340805150765725 1.177692672488085 0.36632790316856034 -0.28807983982601909 -1.2011984775205835 7.5000000000000009 0.85372467236294491 -0.55770926419484057 3.5000000000000004 -1.3882640408700102 -0.34310940623491998 -0.95460769953456004 0.59504771415558355 -1.1410411797517226 -0.86947537076637471 0.40799009662480196 -1.0253486410298362 -0.69670372610406028 6.5000000000000009 1.1018796418552765 -0.75075250901448565 -0.25593382857416047 1.1765663089992902 17.500000000000004
decision_type=2 2 2 2 2 2 2 2 2 2 2 2 2 2 2 2 2 2 2 2 2 2 2 2 2 2 2 2 2 2 2 2 2 2 2 2 2 2 2
left_child=1 2 7 10 -5 6 11 31 9 -9 12 -6 13 14 25 16 19 -13 -18 20 -3 -21 -23 -22 -10 -2 -4 28 -28 -30 -31 -1 -24 -12 35 -35 -15 38 -8
right_child=3 15 26 4 5 -7 37 8 24 -11 33 17 -14 36 -16 -17 18 -19 -20 21 23 22 32 -25 -26 -27 27 -29 29 30 -32 -33 -34 34 -36 -37 -38 -39 -40
leaf_value=0.046170364367906308 -0.033870222527261511 0.042972413470241222 0.051706782098282604 0.032634058681368476 -0.050231947531187433 -0.031419305554915587 0.025074940330979661 -0.042453808861831144 -0.039937198963100891 0.030703008075536355 -0.020003355272161571 0.0086953559622122492 0.047112562018915803 0.046744539705317563 0.044099911342463417 -0.036225927918996356 -0.0086375997896066068 -0.028848030007720699 0.040444976391272001 -0.032623643080565902 0.0039904703564170238 0.031211292618347396 0.0052003830882965153 -0.042798642064663779 -0.011742321861508268 0.0074204857411212279 0.061054333023569461 -0.028440697416295801 0.040311050069135636 -0.015469973785533084 0.035438395385445451 0.0065653436484386105 -0.03890275387621487 -0.039053859362195048 0.032507159367700468 0.018320422935620369 0.020540703066015058 0.035528279188104882 -0.011917977865700147
leaf_weight=7.1876495480537441 7.4950180649757447 4.9654603004455593 9.4130301624536497 22.081809863448143 6.8968531042337409 16.868008136749268 13.668880775570871 4.4138335883617428 12.566416308283804 18.612179726362228 7.8623785078525534 27.562056675553322 34.834941402077675 26.540670767426491 6.6619587987661353 54.115878358483315 13.124765753746034 11.870555847883223 5.959255024790763 76.361992835998535 9.3848364949226397 6.483300149440768 6.565237551927571 8.0141514837741834 100.95178008079529 15.611742496490477 5.6971272528171495 4.6053614169359198 11.71747340261936 10.247586026787763 4.8914368450641623 17.369469493627548 10.831235691905018 5.6860073804855373 14.994436547160147 11.12802365422249 17.548623502254486 15.991303533315657 11.231223449110983
leaf_count=29 32 22 38 92 34 78 57 20 58 80 34 116 142 107 27 273 57 51 25 376 43 29 29 38 453 65 23 20 47 42 20 73 52 24 64 46 71 65 48
internal_value=-5.77023e-05 -0.0105769 0.00160547 0.0154023 0.00410913 -0.00194226 0.00375843 -0.0053216 -0.00954423 0.0166797 0.0250061 -0.00969626 0.0312627 0.0237872 0.00523303 -0.0234977 -0.0186364 -0.00260648 0.00668913 -0.0225783 -0.00412114 -0.0266962 -0.00774174 -0.0175611 -0.0148635 -0.00597276 0.0255675 0.018946 0.0256498 0.0181393 0.000978583 0.0181574 -0.0222587 0.00786376 0.0147519 -0.00108186 0.0363148 0.0190024 0.00838924
internal_weight=678.014 403.479 207.673 274.534 126.171 104.089 87.2209 161.101 136.544 23.026 148.364 46.3295 108.693 73.858 29.7687 195.806 141.69 39.4326 19.084 122.606 22.3644 100.242 23.8798 17.399 113.518 23.1068 46.572 37.159 32.5536 26.8565 15.139 24.5571 17.3965 39.6708 31.8085 16.814 44.0893 40.8914 24.9001
internal_count=3000 1847 903 1153 541 449 371 713 611 100 612 201 444 302 124 944 671 167 82 589 103 486 110 81 511 97 190 152 132 109 62 102 81 168 134 70 178 170 105
is_linear=0
shrinkage=0.04


Tree=15
num_leaves=40
num_cat=0
split_feature=10 6 8 6 10 8 14 14 8 10 9 14 12 14 2 14 3 0 14 2 8 13 10 3 9 12 8 8 4 12 15 11 11 14 3 4 0 14 14
split_gain=63.7651 37.1082 19.8902 17.5414 11.2634 11.196 11.3612 12.6891 9.98407 9.69538 14.1463 9.21229 11.0023 11.0091 6.98951 6.60163 8.00075 11.5325 6.914 10.8193 6.77233 6.57266 6.91748 6.22179 5.81012 5.65098 5.25073 4.97988 4.66419 5.43468 6.36026 7.23669 4.44889 4.44015 5.58762 4.39731 4.39065 4.32818 4.24216
threshold=0.078715876042968341 1.0000000180025095e-35 0.93331584264445666 0.96497547614228207 1.1765663089992902 0.6889390128008287 0.73042928336993318 -0.42032768056484276 0.6889390128008287 0.73742613581676142 0.11238525052666352 -0.91350923653688942 -1.1410411797517226 -0.29703229157183103 -0.66500919317480078 -1.1190015515252421 6.5000000000000009 3.5000000000000004 0.85372467236294491 -0.55770926419484057 0.077996938191758236 0.16064535299954749 1.1765663089992902 11.500000000000002 -0.71380813704938006 -0.39216269818200755 -1.3882640408700102 0.077996938191758236 0.52916793273006357 -1.1410411797517226 -0.86947537076637471 -0.30392034414126728 0.14291182073195108 0.2372477273978863 8.5000000000000018 -0.28807983982601909 3.5000000000000004 -0.99570616253223065 0.85372467236294491
decision_type=2 2 2 2 2 2 2 2 2 2 2 2 2 2 2 2 2 2 2 2 2 2 2 2 2 2 2 2 2 2 2 2 2 2 2 2 2 2 2
left_child=1 2 11 5 35 6 7 9 -6 10 37 24 13 -13 -9 16 -3 27 -17 20 -20 -8 -23 -21 -1 -7 -14 -18 29 -4 -31 -32 -27 34 -16 -5 -15 -2 -28
right_child=3 15 28 4 8 25 21 14 -10 -11 -12 12 26 36 33 18 17 -19 19 23 -22 22 -24 -25 -26 32 38 -29 -30 30 31 -33 -34 -35 -36 -37 -38 -39 -40
leaf_value=-0.0097883633184655677 -0.0026163125525564311 0.027661250992475881 0.066437494717658266 -0.01125433738280047 -0.0032533866744051758 0.050379900475593244 0.044120938260429454 -0.022490450127311944 0.06113396842064521 0.035565133295944039 0.0374630097017771 -0.041353896507794509 -0.038916517779844575 0.011668944195264428 0.049841060807762537 -0.031121629713482958 -0.018260718495839205 -0.041414008957503017 -0.0061956841419812574 0.0066031330104250772 0.057206003861175268 -0.0053984762194547297 0.041600584172980293 -0.037044634663179615 0.031304659409331713 0.013891078942483693 -0.01648869007679743 0.029968167610390072 0.00076675712780245305 0.044374192065645808 0.039842796019395166 -0.014262690161754998 0.04380392497723689 -0.0097359375640504228 0.0060774591241372243 -0.046951276523359134 0.05057005868455864 -0.049202068834442433 0.0017250798135151671
leaf_weight=8.3192697614431399 6.3329627811908722 8.039465665817259 5.902461200952529 11.398871809244158 15.865795463323595 22.142055243253708 26.461506336927414 21.403989508748055 5.0892412215471259 33.906476557254791 9.9899636805057508 4.3512577116489437 12.38388755917549 10.258031204342844 5.8337967544794109 119.11552461981773 6.0782368928194064 15.267670556902884 6.0347158312797529 7.1668154299259212 4.8717291206121445 12.12936954200268 8.5373471379280073 19.288423597812653 16.274636432528496 22.387097328901291 72.011762827634811 7.8488818109035492 10.257133677601812 13.924657374620436 6.6421514302492151 9.7777692824602163 12.340496495366095 19.74485357105732 23.356626942753792 10.708088412880896 8.4795976728200895 6.431559085845949 28.580357700586319
leaf_count=35 27 36 24 50 68 91 109 92 21 138 42 20 58 44 24 595 29 74 28 33 21 51 35 93 67 92 331 35 43 56 27 40 51 84 98 51 36 29 122
internal_value=-5.93437e-05 -0.0102251 0.00154317 0.0148103 -0.00862796 0.0191796 0.0141471 0.00792297 0.012384 0.0220103 0.00181235 -0.00512516 -0.00919739 0.0159632 -0.00342495 -0.0228106 -0.00767278 -0.0174028 -0.0264126 -0.0113995 0.0221248 0.0309196 0.0140167 -0.0252203 0.0174043 0.0345889 -0.0143395 0.00891955 0.0245804 0.0313191 0.0244881 0.00762395 0.0245206 0.00491418 0.0148238 -0.0285451 0.0292734 -0.0260891 -0.0113138
internal_weight=674.935 400.874 207.163 274.06 43.062 230.998 174.128 127 20.955 56.661 22.7545 160.659 136.065 23.0889 70.3393 193.711 37.2343 29.1948 156.477 37.3617 10.9064 47.1282 20.6667 26.4552 24.5939 56.8696 112.976 13.9271 46.5042 36.247 30.3446 16.4199 34.7276 48.9353 29.1904 22.107 18.7376 12.7645 100.592
internal_count=3000 1847 903 1153 190 963 729 534 89 236 98 713 611 100 298 944 174 138 770 175 49 195 86 126 102 234 511 64 190 147 123 67 143 206 122 101 80 56 453
is_linear=0
shrinkage=0.04


Tree=16
num_leaves=40
num_cat=0
split_feature=10 6 8 7 10 8 14 12 14 7 8 6 14 14 13 4 1 9 9 8 14 14 4 14 3 14 2 10 9 14 3 8 7 2 14 7 12 15 2
split_gain=58.9935 34.6714 18.3642 16.651 13.4787 9.29357 8.53511 10.9559 8.40946 7.29232 8.17513 6.63461 6.48688 8.14537 7.3887 7.66791 6.60867 7.11823 6.23871 6.21932 7.30457 5.77117 5.64433 5.17864 7.6131 6.50307 7.429 8.64055 5.02357 6.74597 5.34865 4.81312 5.16469 5.16978 4.70326 6.59716 4.76691 5.44442 4.96261
threshold=0.078715876042968341 1.0000000180025095e-35 0.93331584264445666 0.23012872621180458 1.1765663089992902 0.56675059787901449 -0.87241077353921892 -1.1410411797517226 -0.25593382857416047 0.47340805150765725 1.177692672488085 0.96497547614228207 0.73042928336993318 -1.0779030885275718 0.80609543201558698 -0.69670372610406028 1.0000000180025095e-35 -0.6449586880847098 -0.6449586880847098 0.81112742772264268 0.56603543137925094 -0.83131231054154842 -0.28807983982601909 -1.2011984775205835 7.5000000000000009 0.85372467236294491 -0.12850954827499947 -0.68977942702645678 -0.1630125453320177 0.85372467236294491 6.5000000000000009 -1.3882640408700102 1.5681650153389941 -0.66500919317480078 -0.95460769953456004 0.59504771415558355 -1.1410411797517226 -0.86947537076637471 0.40799009662480196
decision_type=2 2 2 2 2 2 2 2 2 2 2 2 2 2 2 2 2 2 2 2 2 2 2 2 2 2 2 2 2 2 2 2 2 2 2 2 2 2 2
left_child=1 2 6 4 5 12 18 8 -8 10 23 28 13 -2 15 -14 17 -15 -1 20 -6 -13 -12 24 -3 -25 27 -27 30 -30 -5 -9 33 -33 -4 36 -36 -38 -39
right_child=3 9 34 11 19 -7 7 31 -10 -11 22 21 14 16 -16 -17 -18 -19 -20 -21 -22 -23 -24 25 -26 26 -28 -29 29 -31 -32 32 -34 -35 35 -37 37 38 -40
leaf_value=-0.008572209726249504 0.024949943855451899 0.039321716757916118 0.04891645815199748 -0.017853275843132194 0.018016590217668341 0.029277419583671957 -0.032693348230238076 -0.037932672895892965 0.02819301870422012 -0.034821423470817667 -0.0077323032248141519 0.0064184647781085034 0.074286131543280676 -0.038606390313141822 -0.019860322864356246 0.015482948420394197 -0.025064302073969053 0.01665355309634502 0.031396699724070685 0.053985612143091929 0.046754857128068962 -0.035584228026363997 0.039211228426463338 -0.030967471995422081 -0.016487059174349613 -0.013370619316219157 -0.027141616384157592 0.059535209784632094 -0.0187267509841175 0.03414069693062656 0.024295649599576752 -0.023162265972693205 -0.042197389127502649 -0.0023405670033662036 0.057033651047335036 -0.027746837126385052 0.037024443895981356 -0.015168481198555968 0.033741656015151798
leaf_weight=10.210300222039224 13.422870740294455 5.0660155713558224 9.3893817663192731 5.9247438609600094 44.956057190895081 33.10682687163353 4.5232653766870525 12.20062308013439 18.368787959218025 52.6089888215065 13.022890940308573 8.3753934800624865 5.6688432842493066 4.7147416770458248 4.7138263881206504 9.4841915518045425 23.934542611241341 17.85103365778923 16.10298778116703 17.361278608441353 20.652006968855858 13.954251438379286 5.9798323512077323 74.259161785244942 17.152088835835457 6.0519966036081314 12.999009162187575 4.5613004267215747 18.888286486268047 4.8542484343051902 25.768327832221985 27.268767848610878 7.9595914036035529 63.527680814266205 5.6265640109777406 4.5753045231103888 11.709088951349257 10.228494927287107 4.9137110263109198
leaf_count=43 56 22 38 26 183 135 21 58 78 273 57 36 23 21 20 39 104 76 66 72 85 66 25 376 81 28 62 20 82 20 109 123 38 286 23 20 47 42 20
internal_value=-6.07888e-05 -0.00988443 0.00148346 0.0142388 0.0204562 0.0114608 -0.00493829 -0.00903246 0.0161624 -0.0221361 -0.0173381 -0.00142095 0.00406821 -0.00249884 0.023876 0.0374816 -0.0104223 0.00510791 0.0158876 0.0326964 0.0270628 -0.0198299 0.00704002 -0.0211957 -0.00376194 -0.0251533 -0.00686824 0.0179623 0.00599422 -0.00791781 0.0164163 -0.0142305 -0.0113023 -0.00859392 0.0236296 0.0172218 0.0235567 0.0165418 0.000703069
internal_weight=671.937 398.306 206.605 273.631 195.866 112.897 160.162 133.849 22.8921 191.701 139.092 77.7653 79.79 59.9232 19.8669 15.153 46.5003 22.5658 26.3133 82.9693 65.6081 22.3296 19.0027 120.09 22.2181 97.8715 23.6123 10.6133 55.4356 23.7425 31.6931 110.957 98.756 90.7964 46.4425 37.0532 32.4779 26.8513 15.1422
internal_count=3000 1847 903 1153 814 474 713 604 99 944 671 339 339 257 82 62 201 97 109 340 268 102 82 589 103 486 110 48 237 102 135 505 447 409 190 152 132 109 62
is_linear=0
shrinkage=0.04


Tree=17
num_leaves=40
num_cat=0
split_feature=10 8 15 7 7 15 8 10 9 13 12 9 8 14 8 12 14 13 10 9 1 12 10 8 14 7 2 11 4 8 7 2 2 8 7 10 12 15 7
split_gain=54.611 26.5498 16.4309 15.484 11.779 10.4289 9.10868 8.64801 7.75442 7.09512 5.99888 5.52505 5.0869 6.40109 4.89961 4.99809 5.49982 4.81046 5.98066 4.80111 4.78755 5.67021 8.27142 6.69999 5.01226 4.7637 5.58423 5.21454 4.69256 7.50125 6.313 8.23051 6.42071 4.63165 5.25551 4.41945 5.47318 4.21175 4.20907
threshold=0.29828596263423274 -0.16637989165186987 -0.86947537076637471 0.14903561777985372 1.4059787984750922 1.0000000180025095e-35 1.2998810874098992 1.1765663089992902 -0.85150703497872071 0.37579537933822732 1.0000000180025095e-35 -0.6449586880847098 0.81112742772264268 0.56603543137925094 -1.5104524557918244 -0.39216269818200755 -1.2011984775205835 1.4515455110316264 -0.68977942702645678 1.1451269849967185 1.0000000180025095e-35 1.0000000180025095e-35 0.84721117911239363 -0.532945136417312 -0.58472153255552495 1.0000000180025095e-35 -0.4504093352148803 0.14291182073195108 0.52916793273006357 0.6889390128008287 1.6695314008789326 -0.34310940623491998 0.62258995458472255 1.0000000180025095e-35 -0.74298857497160575 -0.36042429713956031 -0.39216269818200755 -0.86947537076637471 -0.41861614124380236
decision_type=2 2 2 2 2 2 2 2 2 2 2 2 2 2 2 2 2 2 2 2 2 2 2 2 2 2 2 2 2 2 2 2 2 2 2 2 2 2 2
left_child=1 5 9 7 6 14 10 20 -8 25 17 -10 13 37 -1 -16 -17 18 -4 -18 38 22 23 -22 -23 26 27 -3 29 -5 31 -30 -32 -12 -35 -7 -37 -9 -2
right_child=3 2 4 28 -6 35 8 12 11 -11 33 -13 -14 -15 15 16 19 -19 -20 -21 21 24 -24 -25 -26 -27 -28 -29 30 -31 32 -33 -34 34 -36 36 -38 -39 -40
leaf_value=-0.029576453689456418 0.03436490022289606 0.014312344140718573 -0.01506299464252457 -0.026218531100354242 -0.032095480070675794 -0.041043840245845564 -0.023773149101641255 0.040308579988629037 0.054146493847341111 0.041347967899586287 0.017061391470037508 0.01458894373957942 0.051575676476266 0.045565760339836059 0.0012893936715057425 0.015482185748443825 -0.026281393055540656 0.028426260353554902 0.0078571115132879069 0.0031708636045731189 -0.0015389664611186709 0.016834442752481395 -0.021235765306296991 0.046331431708237725 -0.030225627115022254 -0.022537429733569689 0.029755454541869106 -0.036394426331272017 -0.013462627523120767 0.027289613549237094 0.0048999221092704765 0.031947610320984067 -0.04715298078423296 0.0034790554711373492 -0.029581310029813169 0.012087923414256754 -0.033327796768425365 0.011050542377889916 0.0060827493684430228
leaf_weight=24.208454757928848 23.038765907287598 9.5188346207141858 35.528989747166634 18.618263944983486 23.170684218406677 40.325926795601845 6.5315506905317298 10.363459080457686 7.4701606631279018 16.397501796483994 5.4557342529296866 23.177130997180939 16.679861858487129 19.784327074885368 41.103594824671745 7.5982239097356787 46.874357983469963 8.5352466106414777 37.379058852791786 10.918505430221556 7.4115858525037828 5.4593868702650097 7.2217569053173056 12.683458730578421 10.754584178328512 6.0648018419742575 19.744867771863937 4.9232266992330542 9.0895574539899844 5.4099957644939414 11.878423333168032 21.471865773200989 5.5691624879837027 9.971082851290701 33.679943680763245 6.5118833631277111 12.19983449578285 32.746398940682411 13.268204316496847
leaf_count=117 94 40 165 81 118 203 28 42 31 68 27 97 70 82 190 34 227 38 170 52 31 23 30 52 45 28 82 21 39 23 53 89 25 46 160 30 61 133 55
internal_value=-6.17344e-05 -0.00837774 0.00025117 0.0156502 -0.0053626 -0.0196356 -0.00166962 0.0226051 0.0157976 0.0191687 -0.00664405 0.0242309 0.0319371 0.0267289 -0.013333 -0.00964054 -0.0165109 1.40416e-05 -0.00331214 -0.0207171 0.0133039 0.00435827 0.0154805 0.0286756 -0.0143801 0.0101335 0.0159294 -0.00297334 0.000259579 -0.0141711 0.00748206 0.0184417 -0.011715 -0.0176865 -0.0220294 -0.0335889 -0.0175226 0.0180841 0.0240293
internal_weight=668.739 437.29 247.549 231.449 190.9 189.741 167.729 159.412 37.1788 56.6492 130.55 30.6473 79.574 62.8942 130.703 106.495 65.3911 81.4433 72.908 57.7929 79.8377 43.5308 27.3168 20.095 16.214 40.2517 34.1869 14.4421 72.0373 24.0283 48.009 30.5614 17.4476 49.1068 43.651 59.0376 18.7117 43.1099 36.307
internal_count=3000 2033 1119 967 880 914 762 657 156 239 606 128 327 257 620 503 313 373 335 279 330 181 113 83 68 171 143 61 310 104 206 128 78 233 206 294 91 175 149
is_linear=0
shrinkage=0.04


Tree=18
num_leaves=40
num_cat=0
split_feature=10 6 6 14 12 12 15 7 14 4 7 7 14 10 15 0 14 3 14 2 0 13 11 13 3 10 2 14 0 4 3 3 7 14 11 12 14 14 14
split_gain=50.8035 31.6766 15.7348 13.5075 14.2743 11.6919 9.71844 8.79854 8.54998 8.49919 8.32583 6.81785 6.61323 8.88341 6.30368 5.25535 5.1402 8.20474 7.66681 12.2536 6.54273 5.98104 5.50517 4.99079 4.96262 4.79903 5.7144 4.70184 4.39914 4.30497 6.53644 4.10988 5.09038 7.29815 6.48999 4.03327 4.00436 3.98116 3.915
threshold=0.078715876042968341 1.0000000180025095e-35 1.0000000180025095e-35 -0.91350923653688942 -1.1410411797517226 -1.1410411797517226 -0.86947537076637471 1.2843391358271661 1.3469062283349917 0.93779181900810482 0.14903561777985372 0.47340805150765725 0.56603543137925094 0.73742613581676142 1.0000000180025095e-35 2.5000000000000004 -1.2011984775205835 7.5000000000000009 0.85372467236294491 -0.55770926419484057 3.5000000000000004 0.37579537933822732 -0.30392034414126728 0.16064535299954749 2.5000000000000004 0.40807100592986489 0.72988988356468287 0.56603543137925094 1.5000000000000002 -0.69670372610406028 20.500000000000004 6.5000000000000009 1.1018796418552765 -0.42032768056484276 -0.52733642657787649 -0.39216269818200755 0.40164157938856854 -0.25593382857416047 -1.69438003349263
decision_type=2 2 2 2 2 2 2 2 2 2 2 2 2 2 2 2 2 2 2 2 2 2 2 2 2 2 2 2 2 2 2 2 2 2 2 2 2 2 2
left_child=1 3 10 -1 9 36 24 14 -8 27 12 16 13 23 15 -7 17 -3 -18 -20 38 22 -21 -2 -6 -17 -27 -5 -10 -14 -31 -12 33 -33 -35 -25 -4 -15 -19
right_child=2 11 5 4 6 7 8 -9 28 -11 31 -13 29 37 -16 25 18 20 19 21 -22 -23 -24 35 -26 26 -28 -29 -30 30 -32 32 -34 34 -36 -37 -38 -39 -40
leaf_value=0.024464555729812435 -0.010590979744689973 0.040497274607291987 0.014785276284138988 0.016750787763940216 0.038312453648953408 -0.0036110651017760165 -0.020908170920941563 -0.029708616510665337 0.043207718711939423 -0.027514982223098478 -0.019581029489284651 -0.033552932448634748 0.061137529332434902 0.042434902123261273 -0.010032478234805671 -0.0056113827613866038 -0.026022712813537026 -0.019886737741768887 0.038153195829839982 -0.027020061249345268 -0.03856576102476008 -0.047847497164890937 0.027619701061264601 0.049044100121978573 0.0011362241936559365 0.020262021021620419 0.067876797473771844 0.051901605202647867 -0.0038618214177043742 0.052260920898375911 0.0082583934041761294 0.039024973965312619 0.029629272921083933 -0.051461923998836562 0.0077227644193793975 0.0041927470991662379 0.049317170575641112 0.017770184669753691 0.031169404323222301
leaf_weight=34.453563749790192 16.359962895512584 6.0689616501331356 12.866846397519113 14.562825411558157 6.6674961894750586 20.684750869870186 79.170756712555885 16.419720083475113 5.0005584061145774 4.6362340152263632 7.804475173354148 51.20931339263916 12.464894086122511 26.192143470048904 37.858925491571426 7.0675352364778545 84.924909844994545 4.2156657427549389 8.5124916434288043 6.4284077584743526 8.613192752003668 7.35107497870922 5.4530465304851523 5.400005042552948 41.529778242111206 15.746151804924013 5.4212583303451529 10.46313217282295 8.7114324420690519 11.525586798787119 10.165294185280798 4.8523365259170559 15.13173735141754 5.4277405589818972 6.5320503860712051 7.9025280922651273 9.2252247333526594 17.444444000720978 5.5886400938034049
leaf_count=142 69 26 54 63 28 88 371 78 21 21 34 273 52 107 165 31 430 20 37 31 42 35 25 22 176 65 22 43 38 48 42 20 64 23 27 33 38 71 25
internal_value=-6.22221e-05 -0.00925451 0.0132142 0.00161825 -0.00299184 0.0027955 -0.00829501 -0.00285811 -0.0158576 0.0222312 0.0220819 -0.0210987 0.0278677 0.0210938 0.00222238 0.0117064 -0.0164488 0.000161755 -0.0200587 -0.00180343 -0.0131297 -0.0194886 -0.0019429 0.00420408 0.0062791 0.0229279 0.0324568 0.031447 0.0133037 0.0424045 0.0316394 0.00644074 0.0127983 -0.00235034 -0.0191372 0.0223996 0.0292051 0.0325748 0.00921623
internal_weight=666.055 393.561 272.494 205.196 170.742 125.29 141.08 103.198 92.8827 29.6622 147.203 188.366 107.455 73.2991 86.7786 48.9197 137.156 24.4865 112.67 27.745 18.4175 19.2325 11.8815 29.6625 48.1973 28.2349 21.1674 25.026 13.712 34.1558 21.6909 39.7483 31.9439 16.8121 11.9598 13.3025 22.0921 43.6366 9.80431
internal_count=3000 1847 1153 903 761 541 634 449 430 127 612 944 444 302 371 206 671 113 558 128 87 91 56 124 204 118 87 106 59 142 90 168 134 70 50 55 92 178 45
is_linear=0
shrinkage=0.04


Tree=19
num_leaves=40
num_cat=0
split_feature=10 6 8 6 12 7 8 7 8 14 12 9 10 11 7 8 8 14 10 9 9 3 4 14 14 3 14 0 4 8 3 9 14 9 13 15 14 8 11
split_gain=47.0274 29.5996 15.7555 14.557 10.7624 8.20454 9.29617 7.74592 7.17847 7.33146 7.29927 8.84323 7.17162 6.64703 6.51025 7.26578 6.2428 6.92898 7.82471 6.35893 6.2115 5.65986 5.14488 4.54111 4.53949 6.43518 5.82966 4.97222 4.59353 5.71869 4.49893 6.26791 4.43044 4.27323 6.05468 4.21576 4.18894 4.17384 4.14023
threshold=0.078715876042968341 1.0000000180025095e-35 0.93331584264445666 1.0000000180025095e-35 -1.1410411797517226 1.2843391358271661 0.077996938191758236 0.14903561777985372 -1.3882640408700102 -0.91350923653688942 -0.39216269818200755 0.31893359742067445 0.29828596263423274 0.36632790316856034 0.47340805150765725 1.177692672488085 1.5442579172535271 0.56603543137925094 0.73742613581676142 1.0074280870673777 -0.71380813704938006 8.5000000000000018 -0.28807983982601909 0.97702006135595665 -1.2011984775205835 7.5000000000000009 0.85372467236294491 3.5000000000000004 -0.69670372610406028 0.077996938191758236 20.500000000000004 -0.094163096367347404 -0.25593382857416047 -0.1630125453320177 0.16064535299954749 1.0000000180025095e-35 0.31944465339322742 1.7886347470971551 0.36632790316856034
decision_type=2 2 2 2 2 2 2 2 2 2 2 2 2 2 2 2 2 2 2 2 2 2 2 2 2 2 2 2 2 2 2 2 2 2 2 2 2 2 2
left_child=1 2 8 7 -5 6 12 16 36 20 11 21 -6 -14 15 24 17 18 19 -2 -10 -11 37 35 25 -3 -26 -27 -28 -30 -19 -32 -20 34 -9 -12 -1 -17 -25
right_child=3 14 -4 4 5 -7 -8 33 9 10 23 -13 13 -15 -16 22 -18 30 32 -21 -22 -23 -24 38 26 27 28 -29 29 -31 31 -33 -34 -35 -36 -37 -38 -39 -40
leaf_value=-0.048484083813837085 -0.0082451683973693672 0.035828055800408015 0.022130499152209025 0.028001075037670062 -0.048701594555885609 -0.028846291123537936 0.016048403286169438 0.035159158375291995 -0.010419925680207172 -0.015370307698662699 -0.013026757391025615 -0.021947295089008147 0.0070247832923854489 -0.02888826219136072 -0.032762106913629976 -0.025946661536679221 0.063542633097353654 0.053662395757588362 0.039175512287326124 0.041071314151087973 0.033705066813477361 0.026773816668528034 0.03765084452225774 0.01493067281937944 -0.029083484032726627 0.0042637948682251485 0.015889626729157402 -0.039423283381380334 -0.0386331197535894 0.015221978232767192 0.045955182165161278 -0.0060099367509933556 0.011925922508697749 -0.0086485019906288891 -0.0072156537362842001 -0.039529501749935615 -0.0080400534399652241 0.020308342826931267 -0.027173995885590819
leaf_weight=8.7054788917303103 22.785410046577457 5.1554425507783916 46.129752680659294 22.119922429323196 6.6235419362783423 16.23787759244442 40.735513880848885 13.154784545302393 7.6273506432771709 6.3651988655328777 43.733113408088684 11.944435313344 27.58118163049221 11.762724980711935 50.364880725741386 7.6799165606498736 6.9408889710903159 17.076487183570862 24.170543923974037 5.1240612268447867 15.431822702288626 25.622798636555672 6.0057463496923438 14.039556056261064 71.751884967088699 9.3384894877672213 9.2211145013570803 7.5290351510047904 9.3288674056529981 4.7666776180267325 8.6832256913185102 6.4892501682043067 15.778584614396093 17.446370825171471 9.1460264772176725 12.305197283625601 7.7409352064132682 5.2585297226905823 5.0918875187635413
leaf_count=42 96 22 190 92 34 78 170 55 32 28 203 54 116 51 273 34 29 72 99 21 63 112 25 60 376 43 41 38 47 22 36 27 64 74 39 61 36 23 22
internal_value=-6.27816e-05 -0.00894426 0.00155509 0.0127156 0.00268741 -0.00275199 0.00213499 0.021259 -0.0044291 -0.0015347 -0.00553163 0.00742133 -0.0101948 -0.00371221 -0.0204765 -0.0159279 0.0268579 0.0243144 0.0170597 0.00080913 0.0191097 0.0183877 0.00705468 -0.0131019 -0.0196463 -0.00328259 -0.023437 -0.0152365 -0.00606111 -0.020421 0.0395797 0.0237298 0.0284128 0.00617985 0.0177804 -0.0188464 -0.029448 -0.00714739 0.0037244
internal_weight=662.995 391.138 204.738 271.856 125.061 102.941 86.703 146.796 158.608 142.161 119.102 43.9324 45.9674 39.3439 186.401 136.036 107.048 100.108 67.8586 27.9095 23.0592 31.988 18.9442 75.1698 117.092 22.023 95.0685 16.8675 23.3167 14.0955 32.249 15.1725 39.9491 39.7472 22.3008 56.0383 16.4464 12.9384 19.1314
internal_count=3000 1847 903 1153 541 449 371 612 713 635 540 194 201 167 944 671 444 415 280 117 95 140 82 346 589 103 486 81 110 69 135 63 163 168 94 264 78 57 82
is_linear=0
shrinkage=0.04


Tree=20
num_leaves=40
num_cat=0
split_feature=10 6 8 12 7 10 8 7 8 15 2 10 8 6 8 3 7 13 2 8 2 15 2 9 7 15 12 11 13 10 2 12 15 11 10 3 13 15 9
split_gain=43.6358 33.0264 19.5078 11.3316 10.2939 11.3753 8.36327 8.00902 7.76077 7.78865 6.79464 7.76177 6.72319 6.98309 6.10426 5.89055 4.85988 4.3801 5.37443 5.14443 4.37414 3.96609 5.10047 4.62118 4.31342 3.90861 3.90753 5.05829 6.00236 3.79262 3.95907 3.75045 4.57595 7.13122 13.6449 5.70067 4.09808 3.74743 3.73178
threshold=0.95699622240802584 1.0000000180025095e-35 0.93331584264445666 1.1055942649574231 1.4059787984750922 -0.36042429713956031 1.4220695023317129 1.2843391358271661 -0.16637989165186987 -0.86947537076637471 -0.4504093352148803 -0.68977942702645678 0.6889390128008287 1.0000000180025095e-35 -0.532945136417312 28.500000000000004 -0.86462823761953211 -0.48480472601649183 -0.4504093352148803 0.2001853531135723 0.8371898125446432 1.0000000180025095e-35 0.72988988356468287 1.0000000180025095e-35 -0.54025580389172856 1.0000000180025095e-35 -1.1410411797517226 0.36632790316856034 0.16064535299954749 1.0000000180025095e-35 -0.34310940623491998 -1.1410411797517226 -0.86947537076637471 -0.30392034414126728 -0.140854210548296 23.500000000000004 -1.0000000180025095e-35 -1.0000000180025095e-35 -0.50725979015536915
decision_type=2 2 2 2 2 2 2 2 2 2 2 2 2 2 2 2 2 2 2 2 2 2 2 2 2 2 2 2 2 2 2 2 2 2 2 2 2 2 2
left_child=1 2 3 8 5 6 26 12 10 29 -1 16 13 -2 -7 -13 -12 19 -19 -16 -11 22 23 -15 -23 -21 27 28 -3 30 -10 -4 -33 35 36 -34 -35 -8 -9
right_child=7 4 31 -5 -6 14 37 38 9 20 11 15 -14 21 17 -17 -18 18 -20 25 -22 24 -24 -25 -26 -27 -28 -29 -30 -31 -32 32 33 34 -36 -37 -38 -39 -40
leaf_value=-0.019076290926884551 0.028130500586300535 -0.045889880910633903 0.045390705662985628 -0.022717781801095672 -0.037419825014764874 -0.017798166500845036 -0.0076074117656482676 0.014612805890236951 -0.0044810952583481355 0.0084949153676734009 -0.050526736650703709 0.021511206299030711 0.040484091845097804 -0.0083863121729787406 -0.01046494767155395 -0.017726083036351231 -0.0059476469083857677 -0.021327417201457772 0.0077076058271792558 0.049165171224831744 -0.019797064163252283 0.021887369594290006 0.044654072264897197 0.035005015201230026 -0.02317896626980117 0.0073148409321144737 -0.028165153915321577 0.018466095459141015 0.0067711127348547744 0.052690581573767908 0.032972565650961405 0.037074276631483882 0.010337767308057855 -0.0042268024580973552 0.047823135400157799 0.062869411715187673 -0.051609281488716137 0.039712982185193549 -0.02083003085272089
leaf_weight=35.339123517274857 51.475306883454323 7.9387150257825869 11.34301635622978 33.640852332115173 31.483145713806152 28.967550501227379 6.419734999537468 8.8678226619958895 7.0023846477270189 44.619340941309929 4.8926361799240139 31.442601710557938 28.464214041829109 12.901866659522062 6.5204112678766277 7.601839840412139 19.536841735243797 16.122441783547401 27.768458768725395 8.7958301305770856 10.874447897076605 4.8824233561754253 7.1169172972440711 5.6453970670700064 11.177519544959067 6.010612726211547 87.826582878828049 7.112657666206359 6.1427233666181564 7.7550708651542655 12.716000005602835 15.98891675472259 7.9303688108921033 5.301402509212493 5.1267383098602393 5.6672643423080444 6.50313377380371 4.5937044322490674 10.243700399994848
leaf_count=157 213 40 47 155 175 138 28 38 29 197 23 137 120 53 32 34 90 73 124 38 49 20 29 23 48 26 461 33 30 32 52 65 33 22 21 23 27 20 45
internal_value=-6.36324e-05 -0.00542128 0.00414653 -0.00139215 -0.0160631 -0.0129243 -0.0210892 0.019688 0.00255444 0.0115742 -0.00501886 0.00280761 0.0234694 0.0182729 -0.00251856 0.0138718 -0.0148758 0.00426813 -0.00295783 0.0191392 0.00295088 0.00611151 0.0158672 0.0048211 -0.00947824 0.0321762 -0.0244451 -0.00902943 -0.0229177 0.0289923 0.019672 0.0247676 0.0197388 0.0106596 -0.00666538 0.0322321 -0.0303299 0.0121299 -0.00438441
internal_weight=659.76 518.985 273.282 215.421 245.703 214.219 120.034 140.775 181.78 82.9672 98.813 63.4739 121.664 93.1994 94.1853 39.0444 24.4295 65.2178 43.8909 21.3269 55.4938 41.7241 25.6642 18.5473 16.0599 14.8064 109.021 21.1941 14.0814 27.4735 19.7184 57.8608 46.5178 30.5289 16.9313 13.5976 11.8045 11.0134 19.1115
internal_count=3000 2411 1193 955 1218 1043 612 589 800 359 441 284 506 386 431 171 113 293 197 96 246 173 105 76 68 64 564 103 70 113 81 238 191 126 70 56 49 48 83
is_linear=0
shrinkage=0.04


Tree=21
num_leaves=40
num_cat=0
split_feature=6 8 8 7 14 14 14 12 15 2 2 2 14 2 14 14 7 15 13 7 12 7 8 13 9 3 11 3 3 13 9 13 0 11 11 13 9 8 7
split_gain=39.0055 15.8467 12.6685 8.87486 8.54395 10.6746 8.09737 7.13501 6.69813 7.9462 5.90792 7.43127 5.66031 5.5249 5.35267 5.31591 6.21205 5.22485 5.2061 5.38359 5.09579 5.05066 7.27784 4.89226 4.8612 5.56551 4.83128 5.89964 4.51267 4.47457 7.36336 6.14022 4.30389 4.12687 4.09359 4.0874 5.99855 4.05087 10.2326
threshold=1.0000000180025095e-35 0.93331584264445666 0.2001853531135723 1.4059787984750922 -1.5710846444996183 0.56603543137925094 1.4702016173280035 1.1055942649574231 1.0000000180025095e-35 -1.3088087670545623 -0.34310940623491998 0.8371898125446432 0.31944465339322742 1.5882893154043654 -0.83131231054154842 -0.7902138475438778 0.5747744370475959 -0.86947537076637471 0.37579537933822732 -0.62134891232367939 -0.39216269818200755 0.16930889488784143 0.077996938191758236 -1.130254805032531 -0.78265758601405044 20.500000000000004 0.14291182073195108 15.500000000000002 32.500000000000007 1.0000000180025095e-35 -0.57610923912003942 1.0212454583542667 2.5000000000000004 -1.0000000180025095e-35 0.36632790316856034 -0.91510477869385132 1.6959225767140811 0.93331584264445666 -0.3983428641358146
decision_type=2 2 2 2 2 2 2 2 2 2 2 2 2 2 2 2 2 2 2 2 2 2 2 2 2 2 2 2 2 2 2 2 2 2 2 2 2 2 2
left_child=1 4 6 20 34 10 8 17 13 -10 18 12 23 28 -5 -3 -17 -7 19 -6 -4 -19 -23 -12 -20 -26 -13 -28 35 30 -22 -31 -33 -8 -1 -2 -37 38 -32
right_child=2 15 3 14 5 7 33 -9 9 -11 11 26 -14 -15 -16 16 -18 21 24 -21 29 22 -24 -25 25 -27 27 -29 -30 31 37 32 -34 -35 -36 36 -38 -39 -40
leaf_value=0.047847737624417193 -0.032833607542912605 0.046705652785510407 0.013264122433086346 0.0099774738236019008 -0.0055673589148264114 0.033664027108524161 -0.0054777858490048358 -0.012850704422010141 0.006231197096501705 -0.034897568091866442 0.043675077633658674 -0.019474864249348342 -0.022062893144989278 0.028684975797530893 -0.039108656909268104 0.02559187911471509 -0.013222387407864147 0.020067605425311205 0.030753830826421278 -0.034599195984676472 0.028509234448705047 -0.023812715608238829 0.035166977775249471 0.010318869186620902 0.0089038769962474455 -0.040995081528612039 -0.017829417284402259 0.042076707170518819 -0.056592467216862778 -0.026167436720563618 0.046181631946146197 -0.017881103570158575 0.026742545674389728 0.040163566723910978 0.0047036506283978036 -0.013684352881206452 0.022941549739992805 -0.030115985959659395 -0.028349752791107706
leaf_weight=10.489846691489218 14.202569350600241 15.497886613011358 45.256325602531433 4.7459357082843807 19.313491031527519 25.564225435256958 8.1905566751956922 13.294881224632261 8.60280594229698 59.495896905660629 8.0756437480449659 28.895391762256622 7.54151827096939 4.8011568784713736 14.158185213804243 47.347956389188766 7.665483593940734 35.25808784365654 6.978181645274165 21.705199673771858 14.268037512898443 11.632046595215799 4.7000586837530127 54.605186760425568 9.6927773505449277 5.6675245910882941 5.2501374632120115 5.2710438072681427 4.0560063272714606 23.146527409553528 5.4818670451641065 6.119115859270094 7.9526031464338303 5.1708657145500174 5.2947598546743384 58.374139830470085 8.1540767103433591 8.4651230871677381 6.3746586441993749
leaf_count=43 72 64 201 24 85 106 38 59 42 305 35 130 34 23 79 196 33 151 30 98 63 53 20 240 43 26 24 23 21 108 24 28 36 23 22 289 40 38 31
internal_value=-6.40208e-05 0.00906928 -0.0104683 -0.00135489 0.00479066 0.00307797 -0.0177127 0.0142134 -0.0202461 -0.0297018 -0.00274406 0.00287515 0.0106772 -0.0130585 -0.0267854 0.0260129 0.0201836 0.0188769 -0.012468 -0.0209297 0.00275177 0.0115495 -0.00683952 0.0146164 0.00306952 -0.00950745 -0.0110246 0.0121832 -0.0154223 -0.00387356 0.00648392 -0.0134995 0.00733786 0.0121854 0.0333756 -0.0133538 -0.00919527 -0.00898027 0.00610985
internal_weight=656.758 349.741 307.016 135.968 279.23 263.445 171.048 90.4493 157.687 68.0987 172.996 109.639 70.2223 89.5879 18.9041 70.5113 55.0134 77.1544 63.3572 41.0187 117.064 51.5902 16.3321 62.6808 22.3385 15.3603 39.4166 10.5212 84.7868 71.8079 34.5897 37.2182 14.0717 13.3614 15.7846 80.7308 66.5282 20.3216 11.8565
internal_count=3000 1515 1485 632 1222 1157 853 389 792 347 768 486 309 445 103 293 229 330 282 183 529 224 73 275 99 69 177 47 422 328 156 172 64 61 65 401 329 93 55
is_linear=0
shrinkage=0.04


Tree=22
num_leaves=40
num_cat=0
split_feature=10 6 8 6 10 14 12 8 8 14 14 7 15 2 7 8 10 13 7 4 12 8 7 9 4 7 7 10 8 14 14 2 14 14 2 10 10 12 0
split_gain=40.5568 24.1128 12.5925 11.7546 10.0225 8.97584 9.813 8.14508 7.92563 8.19838 10.8674 7.67525 6.31536 6.14145 5.94701 6.25068 5.20484 5.19245 5.00214 4.98666 4.74384 4.72422 4.66695 6.0095 4.58921 4.55742 5.98568 4.51424 4.40398 4.37899 9.14959 5.53584 4.24473 5.52248 6.55804 7.48296 5.48881 5.91182 4.02384
threshold=0.078715876042968341 1.0000000180025095e-35 1.0000000180025095e-35 0.96497547614228207 1.1765663089992902 -0.95460769953456004 -1.1410411797517226 0.6889390128008287 0.6889390128008287 0.73042928336993318 -1.4477892555066068 0.89914687077539923 -0.86947537076637471 0.8371898125446432 0.47340805150765725 1.177692672488085 0.95699622240802584 0.37579537933822732 -0.45916269545977778 2.163663477842229 -1.1410411797517226 -1.3882640408700102 1.7708977864188713 -0.71380813704938006 -0.28807983982601909 -0.66189546653965492 0.65586754547954673 1.0667812657036582 0.2001853531135723 -0.42032768056484276 -1.1601000145229128 0.8371898125446432 -1.2011984775205835 0.85372467236294491 -0.12850954827499947 -0.68977942702645678 -0.36042429713956031 -0.39216269818200755 3.5000000000000004
decision_type=2 2 2 2 2 2 2 2 2 2 2 2 2 2 2 2 2 2 2 2 2 2 2 2 2 2 2 2 2 2 2 2 2 2 2 2 2 2 2
left_child=1 2 19 8 -5 -4 -7 -6 9 10 27 -10 17 25 15 32 20 18 -8 21 -12 -1 23 -14 -17 -11 -27 -2 -22 30 -18 -31 36 -34 35 -35 37 -3 -16
right_child=3 14 5 4 7 6 12 -9 11 13 16 -13 22 -15 38 24 29 -19 -20 -21 28 -23 -24 -25 -26 26 -28 -29 -30 31 -32 -33 33 34 -36 -37 -38 -39 -40
